{"learner":{"attributes":{"best_iteration":"99","best_ntree_limit":"100","scikit_learn":"{\"use_label_encoder\": true, \"n_estimators\": 100, \"objective\": \"binary:logistic\", \"max_depth\": 15, \"learning_rate\": 0.01, \"verbosity\": null, \"booster\": null, \"tree_method\": null, \"gamma\": null, \"min_child_weight\": null, \"max_delta_step\": null, \"subsample\": 0.6, \"colsample_bytree\": 0.6, \"colsample_bylevel\": 0.5, \"colsample_bynode\": null, \"reg_alpha\": null, \"reg_lambda\": null, \"scale_pos_weight\": null, \"base_score\": null, \"missing\": NaN, \"num_parallel_tree\": null, \"random_state\": null, \"n_jobs\": null, \"monotone_constraints\": null, \"interaction_constraints\": null, \"importance_type\": null, \"gpu_id\": null, \"validate_parameters\": null, \"predictor\": null, \"enable_categorical\": false, \"classes_\": [0, 1], \"n_classes_\": 2, \"_le\": {\"classes_\": [0, 1]}, \"_estimator_type\": \"classifier\"}"},"feature_names":["goals_per_90_overall","goals_involved_per_90_overall","min_per_conceded_overall","clean_sheets_away","penalty_goals"],"feature_types":["float","float","float","float","float"],"gradient_booster":{"model":{"gbtree_model_param":{"num_trees":"100","size_leaf_vector":"0"},"tree_info":[0,0,0,0,0,0,0,0,0,0,0,0,0,0,0,0,0,0,0,0,0,0,0,0,0,0,0,0,0,0,0,0,0,0,0,0,0,0,0,0,0,0,0,0,0,0,0,0,0,0,0,0,0,0,0,0,0,0,0,0,0,0,0,0,0,0,0,0,0,0,0,0,0,0,0,0,0,0,0,0,0,0,0,0,0,0,0,0,0,0,0,0,0,0,0,0,0,0,0,0],"trees":[{"base_weights":[-6.593407E-2,-1.3488373E0,1E0,-1.7837838E0,8E-1,-1.4666667E0,1.804878E0],"categories":[],"categories_nodes":[],"categories_segments":[],"categories_sizes":[],"default_left":[true,true,true,false,false,false,false],"id":0,"left_children":[1,3,5,-1,-1,-1,-1],"loss_changes":[3.245924E1,1.1474293E1,2.845691E1,0E0,0E0,0E0,0E0],"parents":[2147483647,0,0,1,1,2,2],"right_children":[2,4,6,-1,-1,-1,-1],"split_conditions":[-9.280768E-2,1.0359254E0,9.9437857E-1,-1.7837837E-2,8E-3,-1.4666666E-2,1.804878E-2],"split_indices":[3,0,0,0,0,0,0],"split_type":[0,0,0,0,0,0,0],"sum_hessian":[2.175E1,9.75E0,1.2E1,8.25E0,1.5E0,2.75E0,9.25E0],"tree_param":{"num_deleted":"0","num_feature":"5","num_nodes":"7","size_leaf_vector":"0"}},{"base_weights":[-1.1179055E-1,-1.12736E0,1.1320584E0,-1.5884049E0,-7.350577E-1,5.5403316E-1,1.6045429E0,1.3608362E-1,-1.1570193E0,9.3834144E-1,-3.977581E-1,-1.4867107E0,-3.3174857E-1],"categories":[],"categories_nodes":[],"categories_segments":[],"categories_sizes":[],"default_left":[true,true,true,false,true,true,false,false,true,false,false,false,false],"id":1,"left_children":[1,3,5,-1,7,9,-1,-1,11,-1,-1,-1,-1],"loss_changes":[2.9380873E1,1.1383686E0,1.978466E0,0E0,3.3736672E0,2.6592274E0,0E0,0E0,1.1391945E0,0E0,0E0,0E0,0E0],"parents":[2147483647,0,0,1,1,2,2,4,4,5,5,8,8],"right_children":[2,4,6,-1,8,10,-1,-1,12,-1,-1,-1,-1],"split_conditions":[4.457227E-1,-7.615852E-1,2.0089965E0,-1.588405E-2,-1.12563744E-1,9.939332E-1,1.6045429E-2,1.3608361E-3,-9.280768E-2,9.383414E-3,-3.977581E-3,-1.4867106E-2,-3.3174856E-3],"split_indices":[3,3,3,0,3,3,0,0,3,0,0,0,0],"split_type":[0,0,0,0,0,0,0,0,0,0,0,0,0],"sum_hessian":[2.1248499E1,1.1749224E1,9.499275E0,3.9997137E0,7.74951E0,5.249621E0,4.249654E0,2.7498767E0,4.9996333E0,3.7497156E0,1.4999056E0,2.9997616E0,1.9998719E0],"tree_param":{"num_deleted":"0","num_feature":"5","num_nodes":"13","size_leaf_vector":"0"}},{"base_weights":[3.7965402E-2,-1.8144801E0,1.6855965E0],"categories":[],"categories_nodes":[],"categories_segments":[],"categories_sizes":[],"default_left":[true,false,false],"id":2,"left_children":[1,-1,-1],"loss_changes":[7.934855E1,0E0,0E0],"parents":[2147483647,0,0],"right_children":[2,-1,-1],"split_conditions":[1.0144123E0,-1.81448E-2,1.6855964E-2],"split_indices":[0,0,0],"split_type":[0,0,0],"sum_hessian":[2.3995543E1,1.1248027E1,1.2747517E1],"tree_param":{"num_deleted":"0","num_feature":"5","num_nodes":"3","size_leaf_vector":"0"}},{"base_weights":[-2.0119118E-2,-1.7897586E0,1.4665023E0],"categories":[],"categories_nodes":[],"categories_segments":[],"categories_sizes":[],"default_left":[true,false,false],"id":3,"left_children":[1,-1,-1],"loss_changes":[6.770556E1,0E0,0E0],"parents":[2147483647,0,0],"right_children":[2,-1,-1],"split_conditions":[-3.404913E-2,-1.7897585E-2,1.46650225E-2],"split_indices":[1,0,0],"split_type":[0,0,0],"sum_hessian":[2.3738205E1,1.0744406E1,1.2993799E1],"tree_param":{"num_deleted":"0","num_feature":"5","num_nodes":"3","size_leaf_vector":"0"}},{"base_weights":[1.5408874E-1,-1.7525312E0,1.3849965E0,-3.3209485E-1,1.6590512E0],"categories":[],"categories_nodes":[],"categories_segments":[],"categories_sizes":[],"default_left":[true,false,true,false,false],"id":4,"left_children":[1,-1,3,-1,-1],"loss_changes":[6.105221E1,0E0,7.9571304E0,0E0,0E0],"parents":[2147483647,0,0,2,2],"right_children":[2,-1,4,-1,-1],"split_conditions":[-3.404913E-2,-1.7525312E-2,-4.6373926E-2,-3.3209485E-3,1.6590511E-2],"split_indices":[1,0,2,0,0],"split_type":[0,0,0,0,0],"sum_hessian":[2.3980028E1,9.241538E0,1.473849E1,1.9994069E0,1.2739083E1],"tree_param":{"num_deleted":"0","num_feature":"5","num_nodes":"5","size_leaf_vector":"0"}},{"base_weights":[8.4812574E-2,-1.4270636E0,8.2348883E-1,1.1773549E-1,1.3745499E0],"categories":[],"categories_nodes":[],"categories_segments":[],"categories_sizes":[],"default_left":[true,false,true,false,false],"id":5,"left_children":[1,-1,3,-1,-1],"loss_changes":[2.6269104E1,0E0,5.9553137E0,0E0,0E0],"parents":[2147483647,0,0,2,2],"right_children":[2,-1,4,-1,-1],"split_conditions":[-6.658356E-2,-1.4270635E-2,-3.5332128E-1,1.1773548E-3,1.3745498E-2],"split_indices":[2,0,4,0,0],"split_type":[0,0,0,0,0],"sum_hessian":[2.1469757E1,6.740928E0,1.4728828E1,6.990117E0,7.7387114E0],"tree_param":{"num_deleted":"0","num_feature":"5","num_nodes":"5","size_leaf_vector":"0"}},{"base_weights":[1.3418187E-1,-8.610024E-1,1.1001977E0,-1.6669198E0,3.2222608E-1,-1.291673E0,1.6529633E0,9.8156947E-1,-6.6443044E-1,1.256006E0,2.096177E-1],"categories":[],"categories_nodes":[],"categories_segments":[],"categories_sizes":[],"default_left":[true,true,true,false,true,false,false,true,false,false,false],"id":6,"left_children":[1,3,5,-1,7,-1,-1,9,-1,-1,-1],"loss_changes":[2.4704304E1,1.2679225E1,1.9294777E1,0E0,4.5534573E0,0E0,0E0,5.8378315E-1,0E0,0E0,0E0],"parents":[2147483647,0,0,1,1,2,2,4,4,7,7],"right_children":[2,4,6,-1,8,-1,-1,10,-1,-1,-1],"split_conditions":[3.8175952E-1,-3.6282267E-2,-1.2822178E-3,-1.6669197E-2,9.5666364E-2,-1.2916729E-2,1.6529633E-2,-2.6200406E-2,-6.6443044E-3,1.2560059E-2,2.096177E-3],"split_indices":[3,1,1,0,2,0,0,1,0,0,0],"split_type":[0,0,0,0,0,0,0,0,0,0,0],"sum_hessian":[2.3711803E1,1.1733117E1,1.1978685E1,6.736191E0,4.996926E0,1.9976993E0,9.980987E0,2.998382E0,1.9985439E0,1.7494003E0,1.248982E0],"tree_param":{"num_deleted":"0","num_feature":"5","num_nodes":"11","size_leaf_vector":"0"}},{"base_weights":[-2.2762592E-1,-1.7568291E0,1.6225259E0],"categories":[],"categories_nodes":[],"categories_segments":[],"categories_sizes":[],"default_left":[true,false,false],"id":7,"left_children":[1,-1,-1],"loss_changes":[6.3541744E1,0E0,0E0],"parents":[2147483647,0,0],"right_children":[2,-1,-1],"split_conditions":[1.0144123E0,-1.756829E-2,1.622526E-2],"split_indices":[0,0,0],"split_type":[0,0,0],"sum_hessian":[2.0451294E1,1.1224426E1,9.226869E0],"tree_param":{"num_deleted":"0","num_feature":"5","num_nodes":"3","size_leaf_vector":"0"}},{"base_weights":[-2.6192158E-1,-6.673972E-1,1.4640919E0,-1.7536622E0,1.4820195E0],"categories":[],"categories_nodes":[],"categories_segments":[],"categories_sizes":[],"default_left":[true,true,false,false,false],"id":8,"left_children":[1,3,-1,-1,-1],"loss_changes":[1.6331644E1,4.568329E1,0E0,0E0,0E0],"parents":[2147483647,0,0,1,1],"right_children":[2,4,-1,-1,-1],"split_conditions":[2.13331E0,1.0144123E0,1.4640919E-2,-1.7536622E-2,1.4820195E-2],"split_indices":[3,0,0,0,0],"split_type":[0,0,0,0,0],"sum_hessian":[2.093952E1,1.7452826E1,3.4866936E0,1.1715971E1,5.7368555E0],"tree_param":{"num_deleted":"0","num_feature":"5","num_nodes":"5","size_leaf_vector":"0"}},{"base_weights":[1.4090338E-1,-1.7123754E0,1.6685416E0],"categories":[],"categories_nodes":[],"categories_segments":[],"categories_sizes":[],"default_left":[true,false,false],"id":9,"left_children":[1,-1,-1],"loss_changes":[6.843477E1,0E0,0E0],"parents":[2147483647,0,0],"right_children":[2,-1,-1],"split_conditions":[1.0144123E0,-1.7123753E-2,1.6685415E-2],"split_indices":[0,0,0],"split_type":[0,0,0],"sum_hessian":[2.2162973E1,9.959507E0,1.2203465E1],"tree_param":{"num_deleted":"0","num_feature":"5","num_nodes":"3","size_leaf_vector":"0"}},{"base_weights":[-3.31484E-3,-1.0781521E0,1.0246226E0,-1.5963402E0,-6.378393E-3,-1.1971592E0,1.561018E0,6.5159637E-1,-4.6010256E-1],"categories":[],"categories_nodes":[],"categories_segments":[],"categories_sizes":[],"default_left":[true,true,true,false,true,false,false,false,false],"id":10,"left_children":[1,3,5,-1,7,-1,-1,-1,-1],"loss_changes":[2.4193264E1,5.9339523E0,1.5209705E1,0E0,1.6408957E0,0E0,0E0,0E0,0E0],"parents":[2147483647,0,0,1,1,2,2,4,4],"right_children":[2,4,6,-1,8,-1,-1,-1,-1],"split_conditions":[5.550536E-1,-3.6282267E-2,-9.247942E-3,-1.5963402E-2,-2.877454E-2,-1.1971591E-2,1.561018E-2,6.5159635E-3,-4.6010255E-3],"split_indices":[3,1,1,0,1,0,0,0,0],"split_type":[0,0,0,0,0,0,0,0,0],"sum_hessian":[1.9897175E1,9.702816E0,1.0194359E1,6.2106247E0,3.4921918E0,1.7429786E0,8.45138E0,1.2472978E0,2.244894E0],"tree_param":{"num_deleted":"0","num_feature":"5","num_nodes":"9","size_leaf_vector":"0"}},{"base_weights":[-1.5507092E-1,-7.9749346E-1,1.1685646E0,-1.5897053E0,6.085196E-1,-6.310225E-1,1.5808597E0,1.0132661E0,-6.4969397E-1,2.0819515E-1,1.2011611E0],"categories":[],"categories_nodes":[],"categories_segments":[],"categories_sizes":[],"default_left":[true,true,true,false,true,false,false,true,false,false,false],"id":11,"left_children":[1,3,5,-1,7,-1,-1,9,-1,-1,-1],"loss_changes":[2.1219536E1,1.9520824E1,7.082775E0,0E0,4.0836334E0,0E0,0E0,5.7883644E-1,0E0,0E0,0E0],"parents":[2147483647,0,0,1,1,2,2,4,4,7,7],"right_children":[2,4,6,-1,8,-1,-1,10,-1,-1,-1],"split_conditions":[5.1183784E-1,-3.2933667E-2,1.3836542E-2,-1.5897052E-2,3.2120273E-2,-6.310225E-3,1.5808595E-2,-3.3756427E-2,-6.4969393E-3,2.0819514E-3,1.2011611E-2],"split_indices":[2,1,1,0,1,0,0,2,0,0,0],"split_type":[0,0,0,0,0,0,0,0,0,0,0],"sum_hessian":[2.2858427E1,1.5656896E1,7.2015305E0,9.930789E0,5.726107E0,1.2434788E0,5.9580517E0,4.4797306E0,1.2463764E0,1.2465779E0,3.2331526E0],"tree_param":{"num_deleted":"0","num_feature":"5","num_nodes":"11","size_leaf_vector":"0"}},{"base_weights":[-7.1863376E-2,-1.6381416E0,1.013717E0,-7.7878135E-1,1.2982249E0,-2.2364667E-2,1.5593059E0],"categories":[],"categories_nodes":[],"categories_segments":[],"categories_sizes":[],"default_left":[true,false,true,false,true,false,false],"id":12,"left_children":[1,-1,3,-1,5,-1,-1],"loss_changes":[3.923341E1,0E0,7.9820776E0,0E0,4.231474E0,0E0,0E0],"parents":[2147483647,0,0,2,2,4,4],"right_children":[2,-1,4,-1,6,-1,-1],"split_conditions":[-3.1435803E-2,-1.6381416E-2,-5.531705E-2,-7.7878134E-3,-7.9455413E-4,-2.2364667E-4,1.5593058E-2],"split_indices":[1,0,2,0,1,0,0],"split_type":[0,0,0,0,0,0,0],"sum_hessian":[2.1097473E1,8.428218E0,1.2669255E1,1.4974573E0,1.1171798E1,1.9950174E0,9.176781E0],"tree_param":{"num_deleted":"0","num_feature":"5","num_nodes":"7","size_leaf_vector":"0"}},{"base_weights":[1.7184073E-3,-1.148461E0,7.132344E-1,-6.752384E-2,1.4792413E0,-8.860579E-1,7.2482646E-1],"categories":[],"categories_nodes":[],"categories_segments":[],"categories_sizes":[],"default_left":[true,false,true,true,false,false,false],"id":13,"left_children":[1,-1,3,5,-1,-1,-1],"loss_changes":[2.0707747E1,0E0,9.448502E0,6.2831464E0,0E0,0E0,0E0],"parents":[2147483647,0,0,2,2,3,3],"right_children":[2,-1,4,6,-1,-1,-1],"split_conditions":[-1.34037435E-2,-1.148461E-2,-3.5332128E-1,4.1337085E-1,1.47924125E-2,-8.860579E-3,7.2482643E-3],"split_indices":[2,0,4,2,0,0,0],"split_type":[0,0,0,0,0,0,0],"sum_hessian":[2.33027E1,8.6712885E0,1.4631411E1,7.697512E0,6.933898E0,3.7280257E0,3.9694865E0],"tree_param":{"num_deleted":"0","num_feature":"5","num_nodes":"7","size_leaf_vector":"0"}},{"base_weights":[-3.786981E-2,-1.0613515E0,8.31839E-1,6.5974295E-2,1.3425779E0],"categories":[],"categories_nodes":[],"categories_segments":[],"categories_sizes":[],"default_left":[true,false,true,false,false],"id":14,"left_children":[1,-1,3,-1,-1],"loss_changes":[2.1176159E1,0E0,4.9516916E0,0E0,0E0],"parents":[2147483647,0,0,2,2],"right_children":[2,-1,4,-1,-1],"split_conditions":[-9.280768E-2,-1.0613515E-2,-3.3893174E-1,6.597429E-4,1.3425779E-2],"split_indices":[3,0,4,0,0],"split_type":[0,0,0,0,0],"sum_hessian":[2.1798086E1,9.91255E0,1.1885537E1,5.206878E0,6.6786585E0],"tree_param":{"num_deleted":"0","num_feature":"5","num_nodes":"5","size_leaf_vector":"0"}},{"base_weights":[5.606926E-2,-1.6108619E0,1.1512036E0,1.4137067E-1,1.3338755E0,1.4394908E0,4.6353573E-1,1.669696E-1,1.6024799E0],"categories":[],"categories_nodes":[],"categories_segments":[],"categories_sizes":[],"default_left":[true,false,true,false,true,true,false,false,false],"id":15,"left_children":[1,-1,3,-1,5,7,-1,-1,-1],"loss_changes":[4.2088276E1,0E0,2.3726559E0,0E0,4.026146E-1,1.7866955E0,0E0,0E0,0E0],"parents":[2147483647,0,0,2,2,4,4,5,5],"right_children":[2,-1,4,-1,6,8,-1,-1,-1],"split_conditions":[-4.2367384E-2,-1.6108619E-2,-2.8741178E-3,1.4137067E-3,9.03048E-2,1.0882273E0,4.6353573E-3,1.669696E-3,1.6024798E-2],"split_indices":[1,0,1,0,1,0,0,0,0],"split_type":[0,0,0,0,0,0,0,0,0],"sum_hessian":[2.103974E1,8.155351E0,1.2884389E1,2.245407E0,1.0638982E1,8.904486E0,1.7344958E0,1.240878E0,7.663608E0],"tree_param":{"num_deleted":"0","num_feature":"5","num_nodes":"9","size_leaf_vector":"0"}},{"base_weights":[-1.380802E-1,-8.910373E-1,1.2491701E0,-1.6474537E0,1.2290325E0,-2.0205636E-1,1.5375512E0],"categories":[],"categories_nodes":[],"categories_segments":[],"categories_sizes":[],"default_left":[true,true,true,false,false,false,false],"id":16,"left_children":[1,3,5,-1,-1,-1,-1],"loss_changes":[2.4099216E1,2.5835266E1,3.7250051E0,0E0,0E0,0E0,0E0],"parents":[2147483647,0,0,1,1,2,2],"right_children":[2,4,6,-1,-1,-1,-1],"split_conditions":[5.0862104E-1,1.0308132E0,1.094868E0,-1.6474536E-2,1.2290325E-2,-2.0205637E-3,1.5375512E-2],"split_indices":[2,0,0,0,0,0,0],"split_type":[0,0,0,0,0,0,0],"sum_hessian":[2.1006012E1,1.3847634E1,7.158378E0,1.0370488E1,3.4771457E0,1.2362938E0,5.9220843E0],"tree_param":{"num_deleted":"0","num_feature":"5","num_nodes":"7","size_leaf_vector":"0"}},{"base_weights":[1.0544267E-1,-1.5284733E0,1.2477773E0,2.6136103E-1,1.421992E0,1.549074E0,1.443008E-1],"categories":[],"categories_nodes":[],"categories_segments":[],"categories_sizes":[],"default_left":[true,false,true,false,true,false,false],"id":17,"left_children":[1,-1,3,-1,5,-1,-1],"loss_changes":[4.7999874E1,0E0,2.2205696E0,0E0,1.8215332E0,0E0,0E0],"parents":[2147483647,0,0,2,2,4,4],"right_children":[2,-1,4,-1,6,-1,-1],"split_conditions":[-3.0489482E-2,-1.5284732E-2,-7.9455413E-4,2.6136104E-3,9.154086E-2,1.5490741E-2,1.443008E-3],"split_indices":[1,0,1,0,1,0,0],"split_type":[0,0,0,0,0,0,0],"sum_hessian":[2.3694992E1,9.610614E0,1.4084379E1,2.4894052E0,1.1594974E1,1.0352854E1,1.2421197E0],"tree_param":{"num_deleted":"0","num_feature":"5","num_nodes":"7","size_leaf_vector":"0"}},{"base_weights":[-1.2031752E-1,-5.8262986E-1,7.803363E-1,1.3803738E0,1.4503635E-1,-1.1250304E0,1.03892E0],"categories":[],"categories_nodes":[],"categories_segments":[],"categories_sizes":[],"default_left":[true,false,true,false,true,false,false],"id":18,"left_children":[1,-1,3,-1,5,-1,-1],"loss_changes":[1.0821309E1,0E0,3.1819887E0,0E0,7.3300185E0,0E0,0E0],"parents":[2147483647,0,0,2,2,4,4],"right_children":[2,-1,4,-1,6,-1,-1],"split_conditions":[-3.5332128E-1,-5.8262986E-3,6.662841E-1,1.3803738E-2,5.550536E-1,-1.1250304E-2,1.03892E-2],"split_indices":[4,0,4,0,3,0,0],"split_type":[0,0,0,0,0,0,0],"sum_hessian":[2.3896915E1,1.6024515E1,7.8724E0,3.445424E0,4.4269757E0,1.7218761E0,2.7050996E0],"tree_param":{"num_deleted":"0","num_feature":"5","num_nodes":"7","size_leaf_vector":"0"}},{"base_weights":[-7.061692E-2,-1.6354334E0,1.563371E0],"categories":[],"categories_nodes":[],"categories_segments":[],"categories_sizes":[],"default_left":[true,false,false],"id":19,"left_children":[1,-1,-1],"loss_changes":[6.0523003E1,0E0,0E0],"parents":[2147483647,0,0],"right_children":[2,-1,-1],"split_conditions":[9.9437857E-1,-1.6354334E-2,1.563371E-2],"split_indices":[0,0,0],"split_type":[0,0,0],"sum_hessian":[2.1670582E1,1.1069142E1,1.06014385E1],"tree_param":{"num_deleted":"0","num_feature":"5","num_nodes":"3","size_leaf_vector":"0"}},{"base_weights":[-3.9579507E-2,-1.61855E0,1.6112853E0],"categories":[],"categories_nodes":[],"categories_segments":[],"categories_sizes":[],"default_left":[true,false,false],"id":20,"left_children":[1,-1,-1],"loss_changes":[6.0232815E1,0E0,0E0],"parents":[2147483647,0,0],"right_children":[2,-1,-1],"split_conditions":[1.0144123E0,-1.61855E-2,1.6112853E-2],"split_indices":[0,0,0],"split_type":[0,0,0],"sum_hessian":[2.1106726E1,1.0798281E1,1.0308446E1],"tree_param":{"num_deleted":"0","num_feature":"5","num_nodes":"3","size_leaf_vector":"0"}},{"base_weights":[-1.8235845E-2,-1.6228856E0,1.4957948E0],"categories":[],"categories_nodes":[],"categories_segments":[],"categories_sizes":[],"default_left":[true,false,false],"id":21,"left_children":[1,-1,-1],"loss_changes":[6.2695755E1,0E0,0E0],"parents":[2147483647,0,0],"right_children":[2,-1,-1],"split_conditions":[9.9437857E-1,-1.6228855E-2,1.4957948E-2],"split_indices":[0,0,0],"split_type":[0,0,0],"sum_hessian":[2.3806969E1,1.1522702E1,1.2284266E1],"tree_param":{"num_deleted":"0","num_feature":"5","num_nodes":"3","size_leaf_vector":"0"}},{"base_weights":[6.368072E-2,-8.864121E-1,1.0301907E0,-9.758048E-1,-2.6850325E-1,2.2505447E-1,1.4955734E0,-1.3542057E0,-5.7903147E-1,-9.4201684E-1,1.2447956E0],"categories":[],"categories_nodes":[],"categories_segments":[],"categories_sizes":[],"default_left":[true,true,true,true,false,true,false,false,false,false,false],"id":22,"left_children":[1,3,5,7,-1,9,-1,-1,-1,-1,-1],"loss_changes":[2.2715618E1,4.2903614E-1,4.246787E0,7.99819E-1,0E0,7.9059305E0,0E0,0E0,0E0,0E0,0E0],"parents":[2147483647,0,0,1,1,2,2,3,3,5,5],"right_children":[2,4,6,8,-1,10,-1,-1,-1,-1,-1],"split_conditions":[5.391109E-1,-3.5332128E-1,-3.4435672E-1,-7.615852E-1,-2.6850323E-3,1.276365E0,1.4955734E-2,-1.3542057E-2,-5.7903146E-3,-9.420169E-3,1.2447955E-2],"split_indices":[3,4,4,3,0,3,0,0,0,0,0],"split_type":[0,0,0,0,0,0,0,0,0,0,0],"sum_hessian":[2.2742847E1,1.1510621E1,1.1232227E1,9.549843E0,1.9607781E0,4.6577196E0,6.5745077E0,3.6529727E0,5.89687E0,2.2075016E0,2.4502177E0],"tree_param":{"num_deleted":"0","num_feature":"5","num_nodes":"11","size_leaf_vector":"0"}},{"base_weights":[-1.3444883E-1,-7.405626E-1,1.0164694E0,-1.0754837E0,-2.4728287E-2,-5.934079E-1,1.4379066E0,-1.461199E0,-1.2649227E-2,-1.2124076E0,1.177749E0,1.0590974E0,-1.0798094E0],"categories":[],"categories_nodes":[],"categories_segments":[],"categories_sizes":[],"default_left":[true,true,true,true,true,false,false,false,true,false,false,false,false],"id":23,"left_children":[1,3,5,7,9,-1,-1,-1,11,-1,-1,-1,-1],"loss_changes":[1.4742371E1,3.2614956E0,5.832838E0,3.802164E0,9.132857E0,0E0,0E0,0E0,5.1356444E0,0E0,0E0,0E0,0E0],"parents":[2147483647,0,0,1,1,2,2,3,3,4,4,8,8],"right_children":[2,4,6,8,10,-1,-1,-1,12,-1,-1,-1,-1],"split_conditions":[6.476544E-1,5.391109E-1,1.337484E0,-3.6282267E-2,-9.600472E-3,-5.934079E-3,1.43790655E-2,-1.461199E-2,-1.749523E-2,-1.2124076E-2,1.177749E-2,1.0590974E-2,-1.0798094E-2],"split_indices":[2,3,3,1,1,0,0,0,1,0,0,0,0],"split_type":[0,0,0,0,0,0,0,0,0,0,0,0,0],"sum_hessian":[1.9054277E1,1.2714778E1,6.3395E0,8.319753E0,4.3950257E0,1.2305974E0,5.108903E0,5.8293853E0,2.490367E0,2.2069635E0,2.188062E0,1.2462829E0,1.244084E0],"tree_param":{"num_deleted":"0","num_feature":"5","num_nodes":"13","size_leaf_vector":"0"}},{"base_weights":[-1.6390448E-2,-1.0111282E0,7.585673E-1,-6.859965E-1,-1.3426616E0,1.4250043E-1,1.4476675E0,-3.956908E-1,7.401765E-1,1.8500583E-2,-6.566637E-1],"categories":[],"categories_nodes":[],"categories_segments":[],"categories_sizes":[],"default_left":[true,true,true,false,false,true,false,true,false,false,false],"id":24,"left_children":[1,3,5,-1,-1,7,-1,9,-1,-1,-1],"loss_changes":[1.9417336E1,2.671423E-1,5.809513E0,0E0,0E0,3.0562565E0,0E0,5.712073E-1,0E0,0E0,0E0],"parents":[2147483647,0,0,1,1,2,2,5,5,7,7],"right_children":[2,4,6,-1,-1,8,-1,10,-1,-1,-1],"split_conditions":[-9.280768E-2,-2.8687483E-1,2.0089965E0,-6.8599647E-3,-1.3426616E-2,-1.8449943E-1,1.4476675E-2,6.011993E-1,7.401765E-3,1.8500583E-4,-6.566637E-3],"split_indices":[3,3,3,0,0,4,0,3,0,0,0],"split_type":[0,0,0,0,0,0,0,0,0,0,0],"sum_hessian":[2.3193565E1,1.0023115E1,1.3170449E1,6.6099567E0,3.4131587E0,7.590875E0,5.5795746E0,4.1720276E0,3.4188476E0,1.9717551E0,2.2002726E0],"tree_param":{"num_deleted":"0","num_feature":"5","num_nodes":"11","size_leaf_vector":"0"}},{"base_weights":[1.7020717E-1,-6.737173E-1,9.676941E-1,-1.3559594E0,6.2804234E-1,-1.1629667E0,1.5300196E0,1.239682E0,-3.5931864E-1],"categories":[],"categories_nodes":[],"categories_segments":[],"categories_sizes":[],"default_left":[true,true,true,false,true,false,false,false,false],"id":25,"left_children":[1,3,5,-1,7,-1,-1,-1,-1],"loss_changes":[1.5106966E1,1.0642778E1,1.5501737E1,0E0,3.1476436E0,0E0,0E0,0E0,0E0],"parents":[2147483647,0,0,1,1,2,2,4,4],"right_children":[2,4,6,-1,8,-1,-1,-1,-1],"split_conditions":[3.8175952E-1,-3.404913E-2,-9.600472E-3,-1.3559594E-2,-1.4562191E-2,-1.1629667E-2,1.5300196E-2,1.2396819E-2,-3.5931864E-3],"split_indices":[3,1,1,0,1,0,0,0,0],"split_type":[0,0,0,0,0,0,0,0,0],"sum_hessian":[2.0477879E1,1.0024672E1,1.0453207E1,6.550152E0,3.4745197E0,1.9597069E0,8.4935E0,1.9876692E0,1.4868505E0],"tree_param":{"num_deleted":"0","num_feature":"5","num_nodes":"9","size_leaf_vector":"0"}},{"base_weights":[-1.5408136E-1,-9.7210836E-1,9.125204E-1,-1.5451512E0,5.3672355E-1,-1.1702176E0,1.4396489E0,1.182036E0,-1.7622234E-1],"categories":[],"categories_nodes":[],"categories_segments":[],"categories_sizes":[],"default_left":[true,true,true,false,true,false,false,false,false],"id":26,"left_children":[1,3,5,-1,7,-1,-1,-1,-1],"loss_changes":[2.3831108E1,1.4115765E1,1.4782201E1,0E0,2.495751E0,0E0,0E0,0E0,0E0],"parents":[2147483647,0,0,1,1,2,2,4,4],"right_children":[2,4,6,-1,8,-1,-1,-1,-1],"split_conditions":[3.8175952E-1,-3.333224E-2,-1.2822178E-3,-1.5451512E-2,-1.749523E-2,-1.1702176E-2,1.4396489E-2,1.182036E-2,-1.7622233E-3],"split_indices":[3,1,1,0,1,0,0,0,0],"split_type":[0,0,0,0,0,0,0,0,0],"sum_hessian":[2.529662E1,1.4366709E1,1.0929911E1,1.0394779E1,3.971929E0,1.9611648E0,8.968746E0,1.7394928E0,2.2324364E0],"tree_param":{"num_deleted":"0","num_feature":"5","num_nodes":"9","size_leaf_vector":"0"}},{"base_weights":[1.2268548E-1,-1.5588331E0,1.4676651E0],"categories":[],"categories_nodes":[],"categories_segments":[],"categories_sizes":[],"default_left":[true,false,false],"id":27,"left_children":[1,-1,-1],"loss_changes":[5.672969E1,0E0,0E0],"parents":[2147483647,0,0],"right_children":[2,-1,-1],"split_conditions":[1.0144123E0,-1.5588331E-2,1.467665E-2],"split_indices":[0,0,0],"split_type":[0,0,0],"sum_hessian":[2.3072184E1,1.0182647E1,1.2889537E1],"tree_param":{"num_deleted":"0","num_feature":"5","num_nodes":"3","size_leaf_vector":"0"}},{"base_weights":[1.4478327E-1,-4.8021278E-1,9.535145E-1,1.3977959E0,2.713526E-1,-1.0896149E0,1.2066699E0],"categories":[],"categories_nodes":[],"categories_segments":[],"categories_sizes":[],"default_left":[true,false,true,false,true,false,false],"id":28,"left_children":[1,-1,3,-1,5,-1,-1],"loss_changes":[1.210933E1,0E0,2.767686E0,0E0,8.10758E0,0E0,0E0],"parents":[2147483647,0,0,2,2,4,4],"right_children":[2,-1,4,-1,6,-1,-1],"split_conditions":[-3.5332128E-1,-4.802128E-3,6.662841E-1,1.3977959E-2,1.034446E0,-1.0896148E-2,1.2066699E-2],"split_indices":[4,0,4,0,0,0,0],"split_type":[0,0,0,0,0,0,0],"sum_hessian":[2.2051443E1,1.2667828E1,9.3836155E0,5.0473127E0,4.336303E0,1.6990584E0,2.637245E0],"tree_param":{"num_deleted":"0","num_feature":"5","num_nodes":"7","size_leaf_vector":"0"}},{"base_weights":[7.3011904E-3,-1.5372094E0,1.4833292E0],"categories":[],"categories_nodes":[],"categories_segments":[],"categories_sizes":[],"default_left":[true,false,false],"id":29,"left_children":[1,-1,-1],"loss_changes":[5.3009274E1,0E0,0E0],"parents":[2147483647,0,0],"right_children":[2,-1,-1],"split_conditions":[1.0144123E0,-1.5372094E-2,1.4833291E-2],"split_indices":[0,0,0],"split_type":[0,0,0],"sum_hessian":[2.1252129E1,1.0364892E1,1.0887238E1],"tree_param":{"num_deleted":"0","num_feature":"5","num_nodes":"3","size_leaf_vector":"0"}},{"base_weights":[-3.0886713E-2,-7.4576604E-1,1.289806E0,-1.537318E0,1.0879883E0,2.0257299E-1,1.4400536E0],"categories":[],"categories_nodes":[],"categories_segments":[],"categories_sizes":[],"default_left":[true,true,true,false,false,false,false],"id":30,"left_children":[1,3,5,-1,-1,-1,-1],"loss_changes":[2.3317106E1,2.489104E1,1.1265087E0,0E0,0E0,0E0,0E0],"parents":[2147483647,0,0,1,1,2,2],"right_children":[2,4,6,-1,-1,-1,-1],"split_conditions":[4.1337085E-1,1.0430813E0,1.178686E0,-1.537318E-2,1.0879883E-2,2.0257297E-3,1.4400535E-2],"split_indices":[2,0,0,0,0,0,0],"split_type":[0,0,0,0,0,0,0],"sum_hessian":[2.267796E1,1.4996052E1,7.6819077E0,1.0587531E1,4.4085207E0,1.2178035E0,6.464104E0],"tree_param":{"num_deleted":"0","num_feature":"5","num_nodes":"7","size_leaf_vector":"0"}},{"base_weights":[7.948255E-2,-9.197142E-1,1.1381526E0,4.9799964E-1,1.3615459E0,-9.3410635E-1,1.2277234E0],"categories":[],"categories_nodes":[],"categories_segments":[],"categories_sizes":[],"default_left":[true,false,true,true,false,false,false],"id":31,"left_children":[1,-1,3,5,-1,-1,-1],"loss_changes":[2.7784027E1,0E0,1.1409264E0,6.2332096E0,0E0,0E0,0E0],"parents":[2147483647,0,0,2,2,3,3],"right_children":[2,-1,4,6,-1,-1,-1],"split_conditions":[4.457227E-1,-9.197142E-3,-3.4435672E-1,-9.247942E-3,1.3615459E-2,-9.341063E-3,1.2277233E-2],"split_indices":[3,0,4,1,0,0,0],"split_type":[0,0,0,0,0,0,0],"sum_hessian":[2.4275812E1,1.2556221E1,1.1719591E1,3.8671606E0,7.8524313E0,1.2108152E0,2.6563454E0],"tree_param":{"num_deleted":"0","num_feature":"5","num_nodes":"7","size_leaf_vector":"0"}},{"base_weights":[6.767092E-2,-5.7323414E-1,1.2565737E0,-1.4649336E0,5.0954527E-1,1.3172708E-1,1.426266E0,1.0614256E-1,8.457804E-1,-3.5379413E-1,4.2732573E-1,1.517081E-1,1.0852622E0],"categories":[],"categories_nodes":[],"categories_segments":[],"categories_sizes":[],"default_left":[true,true,true,false,true,false,false,true,true,false,false,false,false],"id":32,"left_children":[1,3,5,-1,7,-1,-1,9,11,-1,-1,-1,-1],"loss_changes":[1.8346401E1,1.5921095E1,1.4184551E0,0E0,9.7359896E-1,0E0,0E0,8.4658414E-1,5.222266E-1,0E0,0E0,0E0,0E0],"parents":[2147483647,0,0,1,1,2,2,4,4,7,7,8,8],"right_children":[2,4,6,-1,8,-1,-1,10,12,-1,-1,-1,-1],"split_conditions":[5.1183784E-1,-3.333224E-2,2.7163908E-2,-1.4649336E-2,-3.5332128E-1,1.3172708E-3,1.42626595E-2,-1.3530597E-1,1.0572629E-2,-3.5379413E-3,4.273257E-3,1.5170809E-3,1.0852622E-2],"split_indices":[2,1,1,0,4,0,0,2,2,0,0,0,0],"split_type":[0,0,0,0,0,0,0,0,0,0,0,0,0],"sum_hessian":[2.213215E1,1.4716651E1,7.415499E0,7.876879E0,6.8397717E0,1.2048868E0,6.2106123E0,3.7074215E0,3.1323502E0,1.4826795E0,2.224742E0,1.2225652E0,1.909785E0],"tree_param":{"num_deleted":"0","num_feature":"5","num_nodes":"13","size_leaf_vector":"0"}},{"base_weights":[-1.665794E-1,-6.242503E-1,6.267615E-1,-1.4250324E0,6.202332E-1,-1.0532717E0,1.3325739E0],"categories":[],"categories_nodes":[],"categories_segments":[],"categories_sizes":[],"default_left":[true,true,true,false,false,false,false],"id":33,"left_children":[1,3,5,-1,-1,-1,-1],"loss_changes":[7.0239563E0,1.2927738E1,9.919846E0,0E0,0E0,0E0,0E0],"parents":[2147483647,0,0,1,1,2,2],"right_children":[2,4,6,-1,-1,-1,-1],"split_conditions":[-3.3893174E-1,-3.6128696E-2,-1.30803585E-2,-1.4250323E-2,6.2023317E-3,-1.0532716E-2,1.3325739E-2],"split_indices":[4,1,1,0,0,0,0],"split_type":[0,0,0,0,0,0,0],"sum_hessian":[1.726742E1,1.1085459E1,6.1819596E0,6.6568966E0,4.4285626E0,1.6831956E0,4.498764E0],"tree_param":{"num_deleted":"0","num_feature":"5","num_nodes":"7","size_leaf_vector":"0"}},{"base_weights":[-1.7402771E-1,-5.851949E-1,7.375573E-1,-1.5195494E0,1.1952475E0,-1.0702964E0,1.3766526E0,1.4268957E0,1.0040596E-1],"categories":[],"categories_nodes":[],"categories_segments":[],"categories_sizes":[],"default_left":[true,true,true,false,true,false,false,false,false],"id":34,"left_children":[1,3,5,-1,7,-1,-1,-1,-1],"loss_changes":[9.698151E0,3.1087759E1,1.0863714E1,0E0,1.5345783E0,0E0,0E0,0E0,0E0],"parents":[2147483647,0,0,1,1,2,2,4,4],"right_children":[2,4,6,-1,8,-1,-1,-1,-1],"split_conditions":[-3.5332128E-1,1.0544796E0,9.978516E-1,-1.5195494E-2,9.154086E-2,-1.0702964E-2,1.3766525E-2,1.4268957E-2,1.0040596E-3],"split_indices":[4,0,0,0,1,0,0,0,0],"split_type":[0,0,0,0,0,0,0,0,0],"sum_hessian":[2.3723036E1,1.6595667E1,7.127369E0,1.0980019E1,5.615647E0,1.6853099E0,5.442059E0,4.3846474E0,1.2309995E0],"tree_param":{"num_deleted":"0","num_feature":"5","num_nodes":"9","size_leaf_vector":"0"}},{"base_weights":[-3.1649824E-2,-1.4868593E0,1.4185864E0],"categories":[],"categories_nodes":[],"categories_segments":[],"categories_sizes":[],"default_left":[true,false,false],"id":35,"left_children":[1,-1,-1],"loss_changes":[4.3498898E1,0E0,0E0],"parents":[2147483647,0,0],"right_children":[2,-1,-1],"split_conditions":[1.0260503E0,-1.4868593E-2,1.4185864E-2],"split_indices":[0,0,0],"split_type":[0,0,0],"sum_hessian":[1.8612257E1,9.277595E0,9.334663E0],"tree_param":{"num_deleted":"0","num_feature":"5","num_nodes":"3","size_leaf_vector":"0"}},{"base_weights":[-8.872972E-2,-1.3592477E0,1.0394701E0,1.1239164E0,3.5274637E-1],"categories":[],"categories_nodes":[],"categories_segments":[],"categories_sizes":[],"default_left":[true,false,true,false,false],"id":36,"left_children":[1,-1,3,-1,-1],"loss_changes":[2.976998E1,0E0,2.4406147E-1,0E0,0E0],"parents":[2147483647,0,0,2,2],"right_children":[2,-1,4,-1,-1],"split_conditions":[-3.404913E-2,-1.3592477E-2,9.03048E-2,1.1239164E-2,3.5274636E-3],"split_indices":[1,0,1,0,0],"split_type":[0,0,0,0,0],"sum_hessian":[1.8783117E1,8.738028E0,1.004509E1,8.378191E0,1.6668993E0],"tree_param":{"num_deleted":"0","num_feature":"5","num_nodes":"5","size_leaf_vector":"0"}},{"base_weights":[-4.9406882E-2,-1.435253E0,9.6986085E-1,-8.200506E-1,1.3197585E0],"categories":[],"categories_nodes":[],"categories_segments":[],"categories_sizes":[],"default_left":[true,false,true,false,false],"id":37,"left_children":[1,-1,3,-1,-1],"loss_changes":[3.1545786E1,0E0,9.159548E0,0E0,0E0],"parents":[2147483647,0,0,2,2],"right_children":[2,-1,4,-1,-1],"split_conditions":[-3.404913E-2,-1.435253E-2,-5.531705E-2,-8.200506E-3,1.3197585E-2],"split_indices":[1,0,2,0,0],"split_type":[0,0,0,0,0],"sum_hessian":[2.0347086E1,8.449971E0,1.1897115E1,1.7256769E0,1.0171438E1],"tree_param":{"num_deleted":"0","num_feature":"5","num_nodes":"5","size_leaf_vector":"0"}},{"base_weights":[3.2165045E-1,-1.5388215E-1,1.0758393E0,1.3076189E0,5.845671E-1],"categories":[],"categories_nodes":[],"categories_segments":[],"categories_sizes":[],"default_left":[true,false,true,false,false],"id":38,"left_children":[1,-1,3,-1,-1],"loss_changes":[8.590921E0,0E0,2.8428364E-1,0E0,0E0],"parents":[2147483647,0,0,2,2],"right_children":[2,-1,4,-1,-1],"split_conditions":[-3.5332128E-1,-1.5388214E-3,6.662841E-1,1.3076188E-2,5.845671E-3],"split_indices":[4,0,4,0,0],"split_type":[0,0,0,0,0],"sum_hessian":[2.2492464E1,1.4282805E1,8.209659E0,4.448962E0,3.760697E0],"tree_param":{"num_deleted":"0","num_feature":"5","num_nodes":"5","size_leaf_vector":"0"}},{"base_weights":[4.7190554E-2,-1.4964119E0,1.4378475E0],"categories":[],"categories_nodes":[],"categories_segments":[],"categories_sizes":[],"default_left":[true,false,false],"id":39,"left_children":[1,-1,-1],"loss_changes":[5.0568645E1,0E0,0E0],"parents":[2147483647,0,0],"right_children":[2,-1,-1],"split_conditions":[9.9437857E-1,-1.4964119E-2,1.4378475E-2],"split_indices":[0,0,0],"split_type":[0,0,0],"sum_hessian":[2.1554995E1,1.0179689E1,1.1375305E1],"tree_param":{"num_deleted":"0","num_feature":"5","num_nodes":"3","size_leaf_vector":"0"}},{"base_weights":[1.1098752E-2,-1.4261392E0,9.7871405E-1,-2.1951897E-2,1.3604486E0],"categories":[],"categories_nodes":[],"categories_segments":[],"categories_sizes":[],"default_left":[true,false,true,false,false],"id":40,"left_children":[1,-1,3,-1,-1],"loss_changes":[3.3286907E1,0E0,5.491543E0,0E0,0E0],"parents":[2147483647,0,0,2,2],"right_children":[2,-1,4,-1,-1],"split_conditions":[-3.404913E-2,-1.4261392E-2,-2.5793657E-2,-2.1951896E-4,1.3604485E-2],"split_indices":[1,0,3,0,0],"split_type":[0,0,0,0,0],"sum_hessian":[2.1931816E1,8.633806E0,1.329801E1,3.9323578E0,9.365652E0],"tree_param":{"num_deleted":"0","num_feature":"5","num_nodes":"5","size_leaf_vector":"0"}},{"base_weights":[-1.4797759E-1,-9.5991945E-1,8.358648E-1,2.8916568E-1,1.1166427E0],"categories":[],"categories_nodes":[],"categories_segments":[],"categories_sizes":[],"default_left":[true,false,true,false,false],"id":41,"left_children":[1,-1,3,-1,-1],"loss_changes":[2.014164E1,0E0,1.4393997E0,0E0,0E0],"parents":[2147483647,0,0,2,2],"right_children":[2,-1,4,-1,-1],"split_conditions":[3.8175952E-1,-9.599194E-3,-3.4435672E-1,2.8916567E-3,1.1166427E-2],"split_indices":[3,0,4,0,0],"split_type":[0,0,0,0,0],"sum_hessian":[2.3209717E1,1.272905E1,1.0480668E1,4.2450523E0,6.2356153E0],"tree_param":{"num_deleted":"0","num_feature":"5","num_nodes":"5","size_leaf_vector":"0"}},{"base_weights":[-7.140898E-2,-7.5697494E-1,7.3138744E-1,6.6258855E-2,1.1027058E0,-6.810875E-1,9.950144E-1],"categories":[],"categories_nodes":[],"categories_segments":[],"categories_sizes":[],"default_left":[true,false,true,true,false,false,false],"id":42,"left_children":[1,-1,3,5,-1,-1,-1],"loss_changes":[1.31152525E1,0E0,2.649016E0,4.156931E0,0E0,0E0,0E0],"parents":[2147483647,0,0,2,2,3,3],"right_children":[2,-1,4,6,-1,-1,-1],"split_conditions":[4.457227E-1,-7.5697494E-3,-3.4435672E-1,2.2620213E0,1.1027058E-2,-6.8108747E-3,9.950144E-3],"split_indices":[3,0,4,3,0,0,0],"split_type":[0,0,0,0,0,0,0],"sum_hessian":[2.1823942E1,1.1802237E1,1.0021707E1,4.0125756E0,6.009131E0,2.3711984E0,1.6413773E0],"tree_param":{"num_deleted":"0","num_feature":"5","num_nodes":"7","size_leaf_vector":"0"}},{"base_weights":[-1.1958958E-1,-1.1690638E0,5.5877936E-1,-1.3856521E0,1.7995797E-1,-1.345958E0,1.4410963E0],"categories":[],"categories_nodes":[],"categories_segments":[],"categories_sizes":[],"default_left":[true,true,true,false,false,false,false],"id":43,"left_children":[1,3,5,-1,-1,-1,-1],"loss_changes":[1.7482134E1,3.0554953E0,2.7206043E1,0E0,0E0,0E0,0E0],"parents":[2147483647,0,0,1,1,2,2],"right_children":[2,4,6,-1,-1,-1,-1],"split_conditions":[-9.280768E-2,7.740079E-1,1.0060166E0,-1.385652E-2,1.7995797E-3,-1.345958E-2,1.4410962E-2],"split_indices":[3,0,0,0,0,0,0],"split_type":[0,0,0,0,0,0,0],"sum_hessian":[2.2638374E1,8.604065E0,1.4034308E1,7.3903723E0,1.2136928E0,4.2765822E0,9.757727E0],"tree_param":{"num_deleted":"0","num_feature":"5","num_nodes":"7","size_leaf_vector":"0"}},{"base_weights":[3.1450123E-2,-1.0284796E0,5.296692E-1,-6.2005997E-1,1.1887102E0,-1.604478E-1,-9.439537E-1,-1.0064048E0,7.375008E-1],"categories":[],"categories_nodes":[],"categories_segments":[],"categories_sizes":[],"default_left":[true,false,true,true,false,true,false,false,false],"id":44,"left_children":[1,-1,3,5,-1,7,-1,-1,-1],"loss_changes":[1.2420081E1,0E0,1.2828304E1,8.119149E-1,0E0,3.6895742E0,0E0,0E0,0E0],"parents":[2147483647,0,0,2,2,3,3,5,5],"right_children":[2,-1,4,6,-1,8,-1,-1,-1],"split_conditions":[-6.658356E-2,-1.0284795E-2,3.8175952E-1,-1.12563744E-1,1.1887101E-2,-7.615852E-1,-9.439536E-3,-1.0064048E-2,7.3750075E-3],"split_indices":[2,0,3,3,0,3,0,0,0],"split_type":[0,0,0,0,0,0,0,0,0],"sum_hessian":[2.148786E1,6.530442E0,1.49574175E1,5.471415E0,9.486002E0,2.8800023E0,2.591413E0,1.420741E0,1.4592614E0],"tree_param":{"num_deleted":"0","num_feature":"5","num_nodes":"9","size_leaf_vector":"0"}},{"base_weights":[9.665482E-2,-3.2096758E-1,8.150969E-1,-1.4068885E0,1.26743E0,-9.181117E-1,1.3123114E0],"categories":[],"categories_nodes":[],"categories_segments":[],"categories_sizes":[],"default_left":[true,true,true,false,false,false,false],"id":45,"left_children":[1,3,5,-1,-1,-1,-1],"loss_changes":[6.6279993E0,2.6166002E1,8.170228E0,0E0,0E0,0E0,0E0],"parents":[2147483647,0,0,1,1,2,2],"right_children":[2,4,6,-1,-1,-1,-1],"split_conditions":[-3.5332128E-1,1.0144123E0,9.3775046E-1,-1.4068885E-2,1.2674299E-2,-9.181117E-3,1.3123114E-2],"split_indices":[4,0,0,0,0,0,0],"split_type":[0,0,0,0,0,0,0],"sum_hessian":[2.021861E1,1.3136029E1,7.0825825E0,7.8699474E0,5.266082E0,1.3901693E0,5.6924133E0],"tree_param":{"num_deleted":"0","num_feature":"5","num_nodes":"7","size_leaf_vector":"0"}},{"base_weights":[-6.0084213E-2,-1.2510582E0,4.6564367E-1,5.6716792E-2,1.1096498E0,-1.2716936E0,9.54817E-1,1.4499596E-1,1.2825578E0,2.6370814E-1,1.1486062E0],"categories":[],"categories_nodes":[],"categories_segments":[],"categories_sizes":[],"default_left":[true,false,true,true,true,false,true,false,false,false,false],"id":46,"left_children":[1,-1,3,5,7,-1,9,-1,-1,-1,-1],"loss_changes":[1.571791E1,0E0,4.5454254E0,1.5240554E1,9.3860435E-1,0E0,7.1304035E-1,0E0,0E0,0E0,0E0],"parents":[2147483647,0,0,2,2,3,3,4,4,6,6],"right_children":[2,-1,4,6,8,-1,10,-1,-1,-1,-1],"split_conditions":[-7.685506E-2,-1.2510582E-2,1.077631E0,-3.0489482E-2,2.4454068E-2,-1.2716936E-2,-9.280768E-2,1.4499596E-3,1.2825578E-2,2.6370813E-3,1.1486062E-2],"split_indices":[2,0,2,1,1,0,3,0,0,0,0],"split_type":[0,0,0,0,0,0,0,0,0,0,0],"sum_hessian":[2.3172943E1,6.6740375E0,1.6498905E1,1.0756733E1,5.7421727E0,4.1711144E0,6.5856185E0,1.1522641E0,4.5899086E0,1.95923E0,4.6263885E0],"tree_param":{"num_deleted":"0","num_feature":"5","num_nodes":"11","size_leaf_vector":"0"}},{"base_weights":[-7.801627E-2,-8.35474E-1,8.602875E-1,-1.2563316E0,-5.285469E-1,1.793122E-1,1.2963902E0,-2.5903348E-2,-8.617607E-1,3.1208986E-1,-1.610316E-1,-9.996593E-1,9.1228825E-1,-1.1963319E0,1.9604717E-1,-8.5600525E-1,1.038663E0],"categories":[],"categories_nodes":[],"categories_segments":[],"categories_sizes":[],"default_left":[true,true,true,false,true,true,false,true,true,true,false,false,false,false,false,false,false],"id":47,"left_children":[1,3,5,-1,7,9,-1,11,13,15,-1,-1,-1,-1,-1,-1,-1],"loss_changes":[1.7169668E1,1.0558882E0,2.9843063E0,0E0,1.5563955E0,2.937944E-1,0E0,5.2867026E0,2.2296343E0,4.468201E0,0E0,0E0,0E0,0E0,0E0,0E0,0E0],"parents":[2147483647,0,0,1,1,2,2,4,4,5,5,7,7,8,8,9,9],"right_children":[2,4,6,-1,8,10,-1,12,14,16,-1,-1,-1,-1,-1,-1,-1],"split_conditions":[4.457227E-1,-7.615852E-1,2.0089965E0,-1.2563315E-2,-2.8687483E-1,8.378649E-1,1.2963901E-2,-3.6282267E-2,-3.8361832E-2,-2.3152325E-2,-1.610316E-3,-9.996593E-3,9.122882E-3,-1.1963318E-2,1.9604717E-3,-8.560052E-3,1.038663E-2],"split_indices":[3,3,3,0,3,3,0,1,1,1,0,0,0,0,0,0,0],"split_type":[0,0,0,0,0,0,0,0,0,0,0,0,0,0,0,0,0],"sum_hessian":[2.214666E1,1.2314895E1,9.831765E0,3.8890219E0,8.425873E0,4.3891964E0,5.4425693E0,3.788606E0,4.637267E0,3.2171226E0,1.1720738E0,1.8269175E0,1.9616884E0,3.423503E0,1.2137643E0,1.1653981E0,2.0517244E0],"tree_param":{"num_deleted":"0","num_feature":"5","num_nodes":"17","size_leaf_vector":"0"}},{"base_weights":[-7.278728E-2,-4.0003198E-1,6.709121E-1,-1.3553871E0,6.839904E-1,-8.987258E-1,1.2469599E0,-1.0090249E0,1.2401146E0],"categories":[],"categories_nodes":[],"categories_segments":[],"categories_sizes":[],"default_left":[true,true,true,false,true,false,false,false,false],"id":48,"left_children":[1,3,5,-1,7,-1,-1,-1,-1],"loss_changes":[5.289206E0,1.6412592E1,7.158334E0,0E0,8.472171E0,0E0,0E0,0E0,0E0],"parents":[2147483647,0,0,1,1,2,2,4,4],"right_children":[2,4,6,-1,8,-1,-1,-1,-1],"split_conditions":[-3.5332128E-1,-4.2520955E-2,-2.9710755E-2,-1.3553871E-2,9.142438E-1,-8.987258E-3,1.2469599E-2,-1.0090249E-2,1.2401146E-2],"split_indices":[4,1,1,0,0,0,0,0,0],"split_type":[0,0,0,0,0,0,0,0,0],"sum_hessian":[1.9630257E1,1.3952807E1,5.6774487E0,7.2834926E0,6.669315E0,1.3738284E0,4.3036203E0,1.4476942E0,5.2216206E0],"tree_param":{"num_deleted":"0","num_feature":"5","num_nodes":"9","size_leaf_vector":"0"}},{"base_weights":[-2.9109737E-2,-1.4311706E0,1.4308882E0],"categories":[],"categories_nodes":[],"categories_segments":[],"categories_sizes":[],"default_left":[true,false,false],"id":49,"left_children":[1,-1,-1],"loss_changes":[4.633452E1,0E0,0E0],"parents":[2147483647,0,0],"right_children":[2,-1,-1],"split_conditions":[1.0260503E0,-1.4311706E-2,1.4308881E-2],"split_indices":[0,0,0],"split_type":[0,0,0],"sum_hessian":[2.0634853E1,1.0536356E1,1.0098496E1],"tree_param":{"num_deleted":"0","num_feature":"5","num_nodes":"3","size_leaf_vector":"0"}},{"base_weights":[-9.4983585E-2,-1.134624E0,4.5306966E-1,-6.098425E-3,8.800385E-1,-7.5509524E-1,1.1377001E0,-8.4802526E-1,1.2974024E0,3.9568327E-2,-1.1670046E0],"categories":[],"categories_nodes":[],"categories_segments":[],"categories_sizes":[],"default_left":[true,false,true,true,true,true,false,false,false,false,false],"id":50,"left_children":[1,-1,3,5,7,9,-1,-1,-1,-1,-1],"loss_changes":[1.3309966E1,0E0,3.028503E0,8.075116E0,6.868017E0,1.9090219E0,0E0,0E0,0E0,0E0,0E0],"parents":[2147483647,0,0,2,2,3,3,4,4,5,5],"right_children":[2,-1,4,6,8,10,-1,-1,-1,-1,-1],"split_conditions":[-6.658356E-2,-1.134624E-2,5.0862104E-1,-7.9455413E-4,-2.1591632E-2,6.4851835E-2,1.1377E-2,-8.480253E-3,1.2974024E-2,3.9568325E-4,-1.1670046E-2],"split_indices":[2,0,2,1,1,2,0,0,0,0,0],"split_type":[0,0,0,0,0,0,0,0,0,0,0],"sum_hessian":[2.1457687E1,7.037493E0,1.4420194E1,7.4230556E0,6.9971375E0,4.6910424E0,2.7320132E0,1.1604638E0,5.8366737E0,1.9100589E0,2.7809837E0],"tree_param":{"num_deleted":"0","num_feature":"5","num_nodes":"11","size_leaf_vector":"0"}},{"base_weights":[-5.7215035E-2,-4.520451E-1,7.015294E-1,-7.1199656E-1,8.0651546E-1,-6.5754926E-1,1.1483562E0,-1.204844E0,-4.4915798E-1,-1.2735976E0,5.958058E-1,9.3250334E-1,9.319852E-2],"categories":[],"categories_nodes":[],"categories_segments":[],"categories_sizes":[],"default_left":[true,true,true,true,false,false,false,false,true,false,true,false,false],"id":51,"left_children":[1,3,5,7,-1,-1,-1,-1,9,-1,11,-1,-1],"loss_changes":[6.9295774E0,5.522973E0,5.5808783E0,1.1516342E0,0E0,0E0,0E0,0E0,9.474731E0,0E0,7.8343666E-1,0E0,0E0],"parents":[2147483647,0,0,1,1,2,2,3,3,8,8,10,10],"right_children":[2,4,6,8,-1,-1,-1,-1,10,-1,12,-1,-1],"split_conditions":[-3.4435672E-1,1.276365E0,5.391109E-1,-7.615852E-1,8.065155E-3,-6.5754927E-3,1.1483562E-2,-1.204844E-2,-3.6282267E-2,-1.2735976E-2,-1.12563744E-1,9.325033E-3,9.319852E-4],"split_indices":[4,3,3,3,0,0,0,0,1,0,3,0,0],"split_type":[0,0,0,0,0,0,0,0,0,0,0,0,0],"sum_hessian":[2.1072775E1,1.4126135E1,6.9466395E0,1.2067841E1,2.0582948E0,1.6020895E0,5.34455E0,2.950814E0,9.117026E0,4.973955E0,4.143071E0,1.9688219E0,2.1742492E0],"tree_param":{"num_deleted":"0","num_feature":"5","num_nodes":"13","size_leaf_vector":"0"}},{"base_weights":[-8.821585E-2,-5.516401E-1,7.271105E-1,1.2218443E0,-6.992943E-2,-6.287679E-1,7.779755E-1],"categories":[],"categories_nodes":[],"categories_segments":[],"categories_sizes":[],"default_left":[true,false,true,false,true,false,false],"id":52,"left_children":[1,-1,3,-1,5,-1,-1],"loss_changes":[8.702905E0,0E0,3.3953838E0,0E0,2.460663E0,0E0,0E0],"parents":[2147483647,0,0,2,2,4,4],"right_children":[2,-1,4,-1,6,-1,-1],"split_conditions":[-3.5332128E-1,-5.516401E-3,6.662841E-1,1.2218443E-2,2.5247064E-1,-6.287679E-3,7.7797547E-3],"split_indices":[4,0,4,0,2,0,0],"split_type":[0,0,0,0,0,0,0],"sum_hessian":[2.0971624E1,1.3577631E1,7.393993E0,4.233329E0,3.1606638E0,2.0608444E0,1.0998193E0],"tree_param":{"num_deleted":"0","num_feature":"5","num_nodes":"7","size_leaf_vector":"0"}},{"base_weights":[-3.0898893E-1,-7.220824E-1,1.095857E0,-1.4195895E0,9.658401E-1,1.1681295E-1,1.1881822E0],"categories":[],"categories_nodes":[],"categories_segments":[],"categories_sizes":[],"default_left":[true,true,false,false,true,false,false],"id":53,"left_children":[1,3,-1,-1,5,-1,-1],"loss_changes":[1.2757347E1,2.0840425E1,0E0,0E0,8.863454E-1,0E0,0E0],"parents":[2147483647,0,0,1,1,4,4],"right_children":[2,4,-1,-1,6,-1,-1],"split_conditions":[1.2518308E0,1.0144123E0,1.095857E-2,-1.4195895E-2,-5.27094E-1,1.1681295E-3,1.1881822E-2],"split_indices":[2,0,0,0,3,0,0],"split_type":[0,0,0,0,0,0,0],"sum_hessian":[1.9619291E1,1.55367365E1,4.082555E0,1.1106234E1,4.4305024E0,1.2360281E0,3.1944745E0],"tree_param":{"num_deleted":"0","num_feature":"5","num_nodes":"7","size_leaf_vector":"0"}},{"base_weights":[-1.474075E-1,-1.3773631E0,1.0414499E0],"categories":[],"categories_nodes":[],"categories_segments":[],"categories_sizes":[],"default_left":[true,false,false],"id":54,"left_children":[1,-1,-1],"loss_changes":[3.4944527E1,0E0,0E0],"parents":[2147483647,0,0],"right_children":[2,-1,-1],"split_conditions":[-3.404913E-2,-1.377363E-2,1.0414499E-2],"split_indices":[1,0,0],"split_type":[0,0,0],"sum_hessian":[2.1916914E1,1.0694328E1,1.1222586E1],"tree_param":{"num_deleted":"0","num_feature":"5","num_nodes":"3","size_leaf_vector":"0"}},{"base_weights":[3.0120393E-2,-3.9112747E-1,6.9257337E-1,-9.188754E-1,6.564075E-1,-7.244383E-1,1.1556826E0],"categories":[],"categories_nodes":[],"categories_segments":[],"categories_sizes":[],"default_left":[true,true,true,false,false,false,false],"id":55,"left_children":[1,3,5,-1,-1,-1,-1],"loss_changes":[5.8517056E0,7.714896E0,6.17548E0,0E0,0E0,0E0,0E0],"parents":[2147483647,0,0,1,1,2,2],"right_children":[2,4,6,-1,-1,-1,-1],"split_conditions":[-3.3893174E-1,4.0309936E-1,-5.531705E-2,-9.188754E-3,6.5640747E-3,-7.244383E-3,1.1556826E-2],"split_indices":[4,2,2,0,0,0,0],"split_type":[0,0,0,0,0,0,0],"sum_hessian":[1.8998863E1,1.1864141E1,7.134723E0,7.971116E0,3.8930254E0,1.6184207E0,5.516302E0],"tree_param":{"num_deleted":"0","num_feature":"5","num_nodes":"7","size_leaf_vector":"0"}},{"base_weights":[2.811125E-1,-1.3790215E0,1.4379978E0],"categories":[],"categories_nodes":[],"categories_segments":[],"categories_sizes":[],"default_left":[true,false,false],"id":56,"left_children":[1,-1,-1],"loss_changes":[4.130283E1,0E0,0E0],"parents":[2147483647,0,0],"right_children":[2,-1,-1],"split_conditions":[1.0144123E0,-1.3790215E-2,1.4379978E-2],"split_indices":[0,0,0],"split_type":[0,0,0],"sum_hessian":[1.947283E1,7.91819E0,1.1554639E1],"tree_param":{"num_deleted":"0","num_feature":"5","num_nodes":"3","size_leaf_vector":"0"}},{"base_weights":[2.1896914E-2,-1.3820097E0,1.313717E0],"categories":[],"categories_nodes":[],"categories_segments":[],"categories_sizes":[],"default_left":[true,false,false],"id":57,"left_children":[1,-1,-1],"loss_changes":[3.9358425E1,0E0,0E0],"parents":[2147483647,0,0],"right_children":[2,-1,-1],"split_conditions":[1.0178852E0,-1.3820097E-2,1.313717E-2],"split_indices":[0,0,0],"split_type":[0,0,0],"sum_hessian":[1.9700796E1,9.407368E0,1.0293428E1],"tree_param":{"num_deleted":"0","num_feature":"5","num_nodes":"3","size_leaf_vector":"0"}},{"base_weights":[2.590433E-2,-1.2984608E0,8.60433E-1,1.006548E0,-3.1014615E-1],"categories":[],"categories_nodes":[],"categories_segments":[],"categories_sizes":[],"default_left":[true,false,true,false,false],"id":58,"left_children":[1,-1,3,-1,-1],"loss_changes":[2.346261E1,0E0,2.5363903E0,0E0,0E0],"parents":[2147483647,0,0,2,2],"right_children":[2,-1,4,-1,-1],"split_conditions":[-4.2520955E-2,-1.2984608E-2,9.571977E-2,1.006548E-2,-3.1014616E-3],"split_indices":[1,0,1,0,0],"split_type":[0,0,0,0,0],"sum_hessian":[1.9218018E1,7.213905E0,1.2004112E1,1.0796581E1,1.2075319E0],"tree_param":{"num_deleted":"0","num_feature":"5","num_nodes":"5","size_leaf_vector":"0"}},{"base_weights":[4.789096E-2,-9.5190525E-1,5.981779E-1,8.8297464E-2,1.1002836E0],"categories":[],"categories_nodes":[],"categories_segments":[],"categories_sizes":[],"default_left":[true,false,true,false,false],"id":59,"left_children":[1,-1,3,-1,-1],"loss_changes":[1.3280923E1,0E0,3.8752608E0,0E0,0E0],"parents":[2147483647,0,0,2,2],"right_children":[2,-1,4,-1,-1],"split_conditions":[-5.531705E-2,-9.519053E-3,-3.3893174E-1,8.829746E-4,1.1002836E-2],"split_indices":[2,0,4,0,0],"split_type":[0,0,0,0,0],"sum_hessian":[2.21045E1,7.5881085E0,1.4516392E1,7.785845E0,6.730547E0],"tree_param":{"num_deleted":"0","num_feature":"5","num_nodes":"5","size_leaf_vector":"0"}},{"base_weights":[-1.1223563E-1,-1.3353933E0,8.6898804E-1,-4.5242107E-1,1.1066656E0,2.8096253E-1,1.200252E0],"categories":[],"categories_nodes":[],"categories_segments":[],"categories_sizes":[],"default_left":[true,false,true,false,true,false,false],"id":60,"left_children":[1,-1,3,-1,5,-1,-1],"loss_changes":[2.8103325E1,0E0,4.6030827E0,0E0,5.406923E-1,0E0,0E0],"parents":[2147483647,0,0,2,2,4,4],"right_children":[2,-1,4,-1,6,-1,-1],"split_conditions":[-3.404913E-2,-1.3353933E-2,-1.3530597E-1,-4.5242105E-3,-5.27094E-1,2.8096251E-3,1.200252E-2],"split_indices":[1,0,2,0,3,0,0],"split_type":[0,0,0,0,0,0,0],"sum_hessian":[2.1448824E1,9.386726E0,1.2062098E1,1.7010899E0,1.0361008E1,1.4622152E0,8.898793E0],"tree_param":{"num_deleted":"0","num_feature":"5","num_nodes":"7","size_leaf_vector":"0"}},{"base_weights":[1.2285499E-1,-9.689625E-1,1.1333208E0,-1.3474414E0,9.898651E-1,-2.7335897E-1,1.3314903E0],"categories":[],"categories_nodes":[],"categories_segments":[],"categories_sizes":[],"default_left":[true,true,true,false,false,false,false],"id":61,"left_children":[1,3,5,-1,-1,-1,-1],"loss_changes":[2.3256939E1,8.890648E0,3.4002628E0,0E0,0E0,0E0,0E0],"parents":[2147483647,0,0,1,1,2,2],"right_children":[2,4,6,-1,-1,-1,-1],"split_conditions":[-7.9455413E-4,1.0544796E0,1.1024945E0,-1.3474414E-2,9.898651E-3,-2.7335896E-3,1.3314903E-2],"split_indices":[1,0,0,0,0,0,0],"split_type":[0,0,0,0,0,0,0],"sum_hessian":[1.9085121E1,9.193036E0,9.892085E0,7.965989E0,1.2270467E0,1.1746396E0,8.717445E0],"tree_param":{"num_deleted":"0","num_feature":"5","num_nodes":"7","size_leaf_vector":"0"}},{"base_weights":[9.863805E-2,-3.2360598E-1,7.6476324E-1,-1.2752002E0,7.6806074E-1,-7.693159E-1,1.0733228E0,-9.8077613E-1,1.3587341E0,2.9739397E-2,1.2424148E0],"categories":[],"categories_nodes":[],"categories_segments":[],"categories_sizes":[],"default_left":[true,true,true,false,true,false,true,false,false,false,false],"id":62,"left_children":[1,3,5,-1,7,-1,9,-1,-1,-1,-1],"loss_changes":[6.5548067E0,1.5967009E1,5.0845947E0,0E0,8.91818E0,0E0,1.3585262E0,0E0,0E0,0E0,0E0],"parents":[2147483647,0,0,1,1,2,2,4,4,6,6],"right_children":[2,4,6,-1,8,-1,10,-1,-1,-1,-1],"split_conditions":[-3.5332128E-1,-4.2520955E-2,-3.8029008E-2,-1.2752002E-2,9.711927E-1,-7.693159E-3,1.1147625E0,-9.807761E-3,1.3587341E-2,2.9739397E-4,1.2424148E-2],"split_indices":[4,1,1,0,0,0,0,0,0,0,0],"split_type":[0,0,0,0,0,0,0,0,0,0,0],"sum_hessian":[2.1424656E1,1.3427449E1,7.997207E0,7.084149E0,6.3433E0,1.0891217E0,6.9080853E0,1.4347942E0,4.908506E0,1.1272055E0,5.78088E0],"tree_param":{"num_deleted":"0","num_feature":"5","num_nodes":"11","size_leaf_vector":"0"}},{"base_weights":[3.37456E-2,-6.663987E-1,7.3423105E-1,-7.511705E-1,-7.4259505E-2,2.1957731E-1,1.0259682E0],"categories":[],"categories_nodes":[],"categories_segments":[],"categories_sizes":[],"default_left":[true,true,true,false,false,false,false],"id":63,"left_children":[1,3,5,-1,-1,-1,-1],"loss_changes":[1.1472611E1,5.32742E-1,1.5269647E0,0E0,0E0,0E0,0E0],"parents":[2147483647,0,0,1,1,2,2],"right_children":[2,4,6,-1,-1,-1,-1],"split_conditions":[3.8175952E-1,-3.5332128E-1,-2.6572084E-1,-7.511705E-3,-7.42595E-4,2.1957732E-3,1.0259681E-2],"split_indices":[3,4,4,0,0,0,0],"split_type":[0,0,0,0,0,0,0],"sum_hessian":[2.139479E1,1.0724338E1,1.0670453E1,9.146357E0,1.577981E0,4.494448E0,6.176005E0],"tree_param":{"num_deleted":"0","num_feature":"5","num_nodes":"7","size_leaf_vector":"0"}},{"base_weights":[-8.353234E-2,-1.2114476E0,8.4748805E-1,-1.7616757E-3,1.1894131E0,3.795406E-1,-5.5017763E-1],"categories":[],"categories_nodes":[],"categories_segments":[],"categories_sizes":[],"default_left":[true,false,true,true,false,false,false],"id":64,"left_children":[1,-1,3,5,-1,-1,-1],"loss_changes":[2.235011E1,0E0,3.4030895E0,1.1206486E0,0E0,0E0,0E0],"parents":[2147483647,0,0,2,2,3,3],"right_children":[2,-1,4,6,-1,-1,-1],"split_conditions":[-3.333224E-2,-1.21144755E-2,3.8175952E-1,-1.12563744E-1,1.189413E-2,3.7954058E-3,-5.501776E-3],"split_indices":[1,0,3,3,0,0,0],"split_type":[0,0,0,0,0,0,0],"sum_hessian":[1.9305853E1,8.593622E0,1.0712231E1,3.3605E0,7.3517303E0,2.1639106E0,1.1965894E0],"tree_param":{"num_deleted":"0","num_feature":"5","num_nodes":"7","size_leaf_vector":"0"}},{"base_weights":[-1.18899625E-2,-1.3624735E0,1.3181663E0],"categories":[],"categories_nodes":[],"categories_segments":[],"categories_sizes":[],"default_left":[true,false,false],"id":65,"left_children":[1,-1,-1],"loss_changes":[4.0739433E1,0E0,0E0],"parents":[2147483647,0,0],"right_children":[2,-1,-1],"split_conditions":[1.0144123E0,-1.3624734E-2,1.3181662E-2],"split_indices":[0,0,0],"split_type":[0,0,0],"sum_hessian":[2.0679195E1,1.0248327E1,1.0430867E1],"tree_param":{"num_deleted":"0","num_feature":"5","num_nodes":"3","size_leaf_vector":"0"}},{"base_weights":[5.887827E-3,-1.1893646E0,8.529467E-1,9.579561E-1,1.844691E-1,5.011445E-1,1.1373909E0,7.955018E-1,-2.105168E-1,1.0379573E0,1.5423301E-1],"categories":[],"categories_nodes":[],"categories_segments":[],"categories_sizes":[],"default_left":[true,false,true,true,false,true,false,true,false,false,false],"id":66,"left_children":[1,-1,3,5,-1,7,-1,9,-1,-1,-1],"loss_changes":[2.2190323E1,0E0,7.2341824E-1,3.188362E-1,0E0,1.1825781E0,0E0,4.0542102E-1,0E0,0E0,0E0],"parents":[2147483647,0,0,2,2,3,3,5,5,7,7],"right_children":[2,-1,4,6,-1,8,-1,10,-1,-1,-1],"split_conditions":[-3.404913E-2,-1.1893645E-2,8.44768E-2,-7.9455413E-4,1.844691E-3,2.4920672E-2,1.1373908E-2,-2.6200406E-2,-2.1051678E-3,1.0379573E-2,1.54233E-3],"split_indices":[1,0,1,1,0,2,0,1,0,0,0],"split_type":[0,0,0,0,0,0,0,0,0,0,0],"sum_hessian":[1.9915478E1,8.092438E0,1.182304E1,9.84368E0,1.9793593E0,3.8458025E0,5.997878E0,2.637196E0,1.2086064E0,1.4647815E0,1.1724147E0],"tree_param":{"num_deleted":"0","num_feature":"5","num_nodes":"11","size_leaf_vector":"0"}},{"base_weights":[-1.1253838E-1,-1.0227358E0,9.144156E-1,-1.3088387E0,3.4856012E-1,-8.2696456E-1,1.2729167E0],"categories":[],"categories_nodes":[],"categories_segments":[],"categories_sizes":[],"default_left":[true,true,true,false,false,false,false],"id":67,"left_children":[1,3,5,-1,-1,-1,-1],"loss_changes":[1.959278E1,4.792948E0,7.2372255E0,0E0,0E0,0E0,0E0],"parents":[2147483647,0,0,1,1,2,2],"right_children":[2,4,6,-1,-1,-1,-1],"split_conditions":[3.8175952E-1,1.0065507E0,1.0144123E0,-1.30883865E-2,3.4856012E-3,-8.269645E-3,1.2729166E-2],"split_indices":[3,0,0,0,0,0,0],"split_type":[0,0,0,0,0,0,0],"sum_hessian":[1.8960371E1,1.0053755E1,8.906615E0,8.355943E0,1.697812E0,1.2974868E0,7.6091285E0],"tree_param":{"num_deleted":"0","num_feature":"5","num_nodes":"7","size_leaf_vector":"0"}},{"base_weights":[3.114605E-2,-4.8167166E-1,9.4725263E-1,-1.2732325E0,7.042591E-1,-4.70437E-1,1.2330405E0,-6.369814E-1,1.120755E0],"categories":[],"categories_nodes":[],"categories_segments":[],"categories_sizes":[],"default_left":[true,true,true,false,true,false,false,false,false],"id":68,"left_children":[1,3,5,-1,7,-1,-1,-1,-1],"loss_changes":[1.0745867E1,1.4700643E1,3.9013395E0,0E0,4.3616905E0,0E0,0E0,0E0,0E0],"parents":[2147483647,0,0,1,1,2,2,4,4],"right_children":[2,4,6,-1,8,-1,-1,-1,-1],"split_conditions":[5.0862104E-1,-3.6128696E-2,5.4426948E-3,-1.2732324E-2,1.0825187E0,-4.7043697E-3,1.23304045E-2,-6.3698143E-3,1.1207549E-2],"split_indices":[2,1,1,0,0,0,0,0,0],"split_type":[0,0,0,0,0,0,0,0,0],"sum_hessian":[2.0902292E1,1.3704829E1,7.197464E0,8.17484E0,5.5299892E0,1.0991038E0,6.09836E0,1.1848944E0,4.3450947E0],"tree_param":{"num_deleted":"0","num_feature":"5","num_nodes":"9","size_leaf_vector":"0"}},{"base_weights":[6.000527E-2,-4.889961E-1,8.569049E-1,1.1364949E0,3.1680527E-1,-7.6642466E-1,9.508675E-1],"categories":[],"categories_nodes":[],"categories_segments":[],"categories_sizes":[],"default_left":[true,false,true,false,true,false,false],"id":69,"left_children":[1,-1,3,-1,5,-1,-1],"loss_changes":[8.712194E0,0E0,8.624306E-1,0E0,3.5776377E0,0E0,0E0],"parents":[2147483647,0,0,2,2,4,4],"right_children":[2,-1,4,-1,6,-1,-1],"split_conditions":[-3.5332128E-1,-4.889961E-3,6.662841E-1,1.1364949E-2,9.342775E-1,-7.6642465E-3,9.508675E-3],"split_indices":[4,0,4,0,0,0,0],"split_type":[0,0,0,0,0,0,0],"sum_hessian":[1.7955864E1,1.0860327E1,7.0955367E0,3.947716E0,3.1478207E0,1.0851688E0,2.062652E0],"tree_param":{"num_deleted":"0","num_feature":"5","num_nodes":"7","size_leaf_vector":"0"}},{"base_weights":[1.24829225E-1,-2.2570619E-1,7.678983E-1,-5.772587E-1,1.0242599E0,-4.3184763E-1,1.0495335E0,-1.2883389E0,1.0074774E0],"categories":[],"categories_nodes":[],"categories_segments":[],"categories_sizes":[],"default_left":[true,true,true,true,false,false,false,false,false],"id":70,"left_children":[1,3,5,7,-1,-1,-1,-1,-1],"loss_changes":[4.6751995E0,6.610722E0,2.9106622E0,1.4066557E1,0E0,0E0,0E0,0E0,0E0],"parents":[2147483647,0,0,1,1,2,2,3,3],"right_children":[2,4,6,8,-1,-1,-1,-1,-1],"split_conditions":[-3.5332128E-1,2.0911322E0,-9.280768E-2,1.0144123E0,1.0242599E-2,-4.318476E-3,1.0495335E-2,-1.2883388E-2,1.0074774E-2],"split_indices":[4,3,3,0,0,0,0,0,0],"split_type":[0,0,0,0,0,0,0,0,0],"sum_hessian":[1.897121E1,1.2698375E1,6.2728367E0,1.0330973E1,2.3674018E0,1.0911703E0,5.1816664E0,7.2602773E0,3.0706956E0],"tree_param":{"num_deleted":"0","num_feature":"5","num_nodes":"9","size_leaf_vector":"0"}},{"base_weights":[6.768938E-2,-1.2434224E0,8.83011E-1,5.112177E-1,1.1075166E0,-9.842277E-1,1.1169374E0],"categories":[],"categories_nodes":[],"categories_segments":[],"categories_sizes":[],"default_left":[true,false,true,true,false,false,false],"id":71,"left_children":[1,-1,3,5,-1,-1,-1],"loss_changes":[2.1909275E1,0E0,4.8458004E-1,7.0749187E0,0E0,0E0,0E0],"parents":[2147483647,0,0,2,2,3,3],"right_children":[2,-1,4,6,-1,-1,-1],"split_conditions":[-3.6282267E-2,-1.2434224E-2,-3.5332128E-1,9.7434485E-1,1.1075166E-2,-9.842277E-3,1.1169374E-2],"split_indices":[1,0,4,0,0,0,0],"split_type":[0,0,0,0,0,0,0],"sum_hessian":[1.8468428E1,6.879881E0,1.1588548E1,5.5968876E0,5.99166E0,1.4333177E0,4.16357E0],"tree_param":{"num_deleted":"0","num_feature":"5","num_nodes":"7","size_leaf_vector":"0"}},{"base_weights":[-1.5706837E-1,-1.3243691E0,1.1633886E0],"categories":[],"categories_nodes":[],"categories_segments":[],"categories_sizes":[],"default_left":[true,false,false],"id":72,"left_children":[1,-1,-1],"loss_changes":[3.423247E1,0E0,0E0],"parents":[2147483647,0,0],"right_children":[2,-1,-1],"split_conditions":[1.0144123E0,-1.324369E-2,1.1633886E-2],"split_indices":[0,0,0],"split_type":[0,0,0],"sum_hessian":[2.0209515E1,1.0725274E1,9.484241E0],"tree_param":{"num_deleted":"0","num_feature":"5","num_nodes":"3","size_leaf_vector":"0"}},{"base_weights":[-2.6969777E-2,-1.3203572E0,1.1956263E0,1.2497716E0,3.6799586E-1],"categories":[],"categories_nodes":[],"categories_segments":[],"categories_sizes":[],"default_left":[true,false,true,false,false],"id":73,"left_children":[1,-1,3,-1,-1],"loss_changes":[3.549142E1,0E0,5.7655334E-2,0E0,0E0],"parents":[2147483647,0,0,2,2],"right_children":[2,-1,4,-1,-1],"split_conditions":[1.0144123E0,-1.3203572E-2,1.4758518E0,1.2497716E-2,3.6799584E-3],"split_indices":[0,0,0,0,0],"split_type":[0,0,0,0,0],"sum_hessian":[2.044626E1,9.896629E0,1.0549632E1,9.423092E0,1.1265396E0],"tree_param":{"num_deleted":"0","num_feature":"5","num_nodes":"5","size_leaf_vector":"0"}},{"base_weights":[3.9878044E-2,-9.537023E-1,6.891695E-1,-1.2101033E0,2.2743852E-1,-1.0357481E0,1.2891822E0],"categories":[],"categories_nodes":[],"categories_segments":[],"categories_sizes":[],"default_left":[true,true,true,false,false,false,false],"id":74,"left_children":[1,3,5,-1,-1,-1,-1],"loss_changes":[1.2332124E1,2.568304E0,1.3263659E1,0E0,0E0,0E0,0E0],"parents":[2147483647,0,0,1,1,2,2],"right_children":[2,4,6,-1,-1,-1,-1],"split_conditions":[-6.658356E-2,9.5431113E-1,8.976831E-1,-1.2101033E-2,2.2743852E-3,-1.0357481E-2,1.2891822E-2],"split_indices":[2,0,0,0,0,0,0],"split_type":[0,0,0,0,0,0,0],"sum_hessian":[1.7097103E1,6.57178E0,1.0525323E1,5.3794856E0,1.1922946E0,2.528932E0,7.9963903E0],"tree_param":{"num_deleted":"0","num_feature":"5","num_nodes":"7","size_leaf_vector":"0"}},{"base_weights":[3.452397E-2,-9.802751E-1,4.8252296E-1,-1.1403804E0,-3.391193E-1,6.043112E-2,9.504547E-1,-1.0925585E0,9.472041E-1,-1.5776546E-1,1.1735586E0],"categories":[],"categories_nodes":[],"categories_segments":[],"categories_sizes":[],"default_left":[true,true,true,false,false,true,true,false,false,false,false],"id":75,"left_children":[1,3,5,-1,-1,7,9,-1,-1,-1,-1],"loss_changes":[9.774765E0,2.903719E-1,2.8783743E0,0E0,0E0,1.0116934E1,1.9112782E0,0E0,0E0,0E0,0E0],"parents":[2147483647,0,0,1,1,2,2,5,5,6,6],"right_children":[2,4,6,-1,-1,8,10,-1,-1,-1,-1],"split_conditions":[-1.3530597E-1,-3.169238E-1,5.0862104E-1,-1.1403804E-2,-3.3911928E-3,-3.1435803E-2,1.3836542E-2,-1.09255845E-2,9.47204E-3,-1.5776546E-3,1.17355855E-2],"split_indices":[2,2,2,0,0,1,1,0,0,0,0],"split_type":[0,0,0,0,0,0,0,0,0,0,0],"sum_hessian":[1.9460112E1,5.5960116E0,1.38641E1,3.8547869E0,1.7412245E0,7.8827295E0,5.9813704E0,3.3260765E0,4.556653E0,1.0514386E0,4.929932E0],"tree_param":{"num_deleted":"0","num_feature":"5","num_nodes":"11","size_leaf_vector":"0"}},{"base_weights":[-1.781622E-1,-1.3214688E0,1.1203357E0,5.096294E-1,1.2327058E0],"categories":[],"categories_nodes":[],"categories_segments":[],"categories_sizes":[],"default_left":[true,false,true,false,false],"id":76,"left_children":[1,-1,3,-1,-1],"loss_changes":[3.1584732E1,0E0,6.0482025E-2,0E0,0E0],"parents":[2147483647,0,0,2,2],"right_children":[2,-1,4,-1,-1],"split_conditions":[1.0144123E0,-1.3214688E-2,1.4424704E-1,5.096294E-3,1.2327058E-2],"split_indices":[0,0,2,0,0],"split_type":[0,0,0,0,0],"sum_hessian":[1.9277937E1,1.0242175E1,9.035762E0,2.2644212E0,6.7713404E0],"tree_param":{"num_deleted":"0","num_feature":"5","num_nodes":"5","size_leaf_vector":"0"}},{"base_weights":[5.1902764E-2,-1.110643E0,4.0261355E-1,-2.2300783E-1,8.1141216E-1,1.8548146E-1,1.1333139E0,-3.7036628E-1,6.289023E-1],"categories":[],"categories_nodes":[],"categories_segments":[],"categories_sizes":[],"default_left":[true,false,true,false,true,true,false,false,false],"id":77,"left_children":[1,-1,3,-1,5,7,-1,-1,-1],"loss_changes":[7.7552166E0,0E0,3.8904307E0,0E0,1.6007171E0,1.2799724E0,0E0,0E0,0E0],"parents":[2147483647,0,0,2,2,4,4,5,5],"right_children":[2,-1,4,-1,6,8,-1,-1,-1],"split_conditions":[-3.3364284E-1,-1.110643E-2,3.8175952E-1,-2.2300782E-3,-3.4435672E-1,1.2004732E0,1.1333139E-2,-3.7036627E-3,6.289023E-3],"split_indices":[2,0,3,0,4,2,0,0,0],"split_type":[0,0,0,0,0,0,0,0,0],"sum_hessian":[1.692432E1,3.4201796E0,1.3504141E1,5.5163903E0,7.9877505E0,3.2480996E0,4.7396507E0,1.5144373E0,1.7336622E0],"tree_param":{"num_deleted":"0","num_feature":"5","num_nodes":"9","size_leaf_vector":"0"}},{"base_weights":[-1.4983346E-1,-1.2802887E0,1.1006721E0],"categories":[],"categories_nodes":[],"categories_segments":[],"categories_sizes":[],"default_left":[true,false,false],"id":78,"left_children":[1,-1,-1],"loss_changes":[2.7680038E1,0E0,0E0],"parents":[2147483647,0,0],"right_children":[2,-1,-1],"split_conditions":[9.627825E-1,-1.2802887E-2,1.1006721E-2],"split_indices":[0,0,0],"split_type":[0,0,0],"sum_hessian":[1.7583832E1,9.222704E0,8.361129E0],"tree_param":{"num_deleted":"0","num_feature":"5","num_nodes":"3","size_leaf_vector":"0"}},{"base_weights":[9.006782E-2,-4.37052E-1,7.0219344E-1,-3.2427964E-1,-7.029918E-1,3.6517736E-1,9.1130316E-1,-9.847444E-1,1.14881694E-1,-7.090262E-1,8.4493244E-1,3.4025666E-1,-1.7038986E-1],"categories":[],"categories_nodes":[],"categories_segments":[],"categories_sizes":[],"default_left":[true,true,true,true,false,true,false,false,true,false,false,false,false],"id":79,"left_children":[1,3,5,7,-1,9,-1,-1,11,-1,-1,-1,-1],"loss_changes":[5.7251434E0,6.1113358E-2,2.4180126E-1,2.6148062E0,0E0,3.0679016E0,0E0,0E0,4.4861525E-1,0E0,0E0,0E0,0E0],"parents":[2147483647,0,0,1,1,2,2,3,3,5,5,8,8],"right_children":[2,4,6,8,-1,10,-1,-1,12,-1,-1,-1,-1],"split_conditions":[4.457227E-1,3.3279407E-1,-3.4435672E-1,-3.5418585E-1,-7.0299176E-3,5.3943557E-1,9.113031E-3,-9.8474445E-3,-2.8687483E-1,-7.090262E-3,8.449324E-3,3.4025665E-3,-1.7038985E-3],"split_indices":[3,4,4,2,0,2,0,0,3,0,0,0,0],"split_type":[0,0,0,0,0,0,0,0,0,0,0,0,0],"sum_hessian":[1.57922535E1,8.638979E0,7.1532755E0,7.624967E0,1.0140116E0,3.7905302E0,3.362745E0,2.549055E0,5.075912E0,1.0227139E0,2.7678163E0,2.7279696E0,2.3479424E0],"tree_param":{"num_deleted":"0","num_feature":"5","num_nodes":"13","size_leaf_vector":"0"}},{"base_weights":[-4.212132E-2,-8.4098506E-1,4.1514006E-1,-3.9132897E-2,9.79797E-1,-7.897687E-1,8.119235E-1,1.6447249E-1,1.1111627E0],"categories":[],"categories_nodes":[],"categories_segments":[],"categories_sizes":[],"default_left":[true,false,true,true,true,false,false,false,false],"id":80,"left_children":[1,-1,3,5,7,-1,-1,-1,-1],"loss_changes":[8.360189E0,0E0,3.7876968E0,6.4302034E0,5.193329E-1,0E0,0E0,0E0,0E0],"parents":[2147483647,0,0,2,2,3,3,4,4],"right_children":[2,-1,4,6,8,-1,-1,-1,-1],"split_conditions":[-5.531705E-2,-8.40985E-3,-3.5332128E-1,-7.9455413E-4,3.5294709E-3,-7.897687E-3,8.119235E-3,1.6447249E-3,1.1111626E-2],"split_indices":[2,0,4,1,1,0,0,0,0],"split_type":[0,0,0,0,0,0,0,0,0],"sum_hessian":[2.0930721E1,7.3138313E0,1.361689E1,8.061787E0,5.5551033E0,4.321881E0,3.7399056E0,1.083341E0,4.471762E0],"tree_param":{"num_deleted":"0","num_feature":"5","num_nodes":"9","size_leaf_vector":"0"}},{"base_weights":[1.9292427E-2,-5.410165E-1,7.486669E-1,1.0859478E0,3.1402978E-1,-9.0085363E-1,1.0100081E0],"categories":[],"categories_nodes":[],"categories_segments":[],"categories_sizes":[],"default_left":[true,false,true,false,true,false,false],"id":81,"left_children":[1,-1,3,-1,5,-1,-1],"loss_changes":[8.609096E0,0E0,9.990139E-1,0E0,5.476511E0,0E0,0E0],"parents":[2147483647,0,0,2,2,4,4],"right_children":[2,-1,4,-1,6,-1,-1],"split_conditions":[-3.5332128E-1,-5.410165E-3,6.662841E-1,1.0859477E-2,1.034446E0,-9.008536E-3,1.0100081E-2],"split_indices":[4,0,4,0,0,0,0],"split_type":[0,0,0,0,0,0,0],"sum_hessian":[1.9074764E1,1.0933694E1,8.14107E0,3.7401643E0,4.400906E0,1.4956915E0,2.9052143E0],"tree_param":{"num_deleted":"0","num_feature":"5","num_nodes":"7","size_leaf_vector":"0"}},{"base_weights":[-1.150794E-1,-4.617244E-1,6.5108585E-1,-1.2044588E0,5.201546E-1,-4.225432E-1,9.4841844E-1],"categories":[],"categories_nodes":[],"categories_segments":[],"categories_sizes":[],"default_left":[true,true,true,false,false,false,false],"id":82,"left_children":[1,3,5,-1,-1,-1,-1],"loss_changes":[5.367315E0,1.0631966E1,2.430245E0,0E0,0E0,0E0,0E0],"parents":[2147483647,0,0,1,1,2,2],"right_children":[2,4,6,-1,-1,-1,-1],"split_conditions":[-3.2031003E-1,-3.6282267E-2,-1.4235482E-2,-1.2044588E-2,5.201546E-3,-4.225432E-3,9.484184E-3],"split_indices":[4,1,1,0,0,0,0],"split_type":[0,0,0,0,0,0,0],"sum_hessian":[1.807731E1,1.2719732E1,5.3575788E0,7.1127E0,5.607032E0,1.0706149E0,4.286964E0],"tree_param":{"num_deleted":"0","num_feature":"5","num_nodes":"7","size_leaf_vector":"0"}},{"base_weights":[5.381761E-2,-1.0186318E0,4.9750417E-1,-1.1368748E0,1.1621691E0],"categories":[],"categories_nodes":[],"categories_segments":[],"categories_sizes":[],"default_left":[true,false,true,false,false],"id":83,"left_children":[1,-1,3,-1,-1],"loss_changes":[9.078395E0,0E0,1.5893256E1,0E0,0E0],"parents":[2147483647,0,0,2,2],"right_children":[2,-1,4,-1,-1],"split_conditions":[-7.586007E-2,-1.0186318E-2,9.543112E-1,-1.1368748E-2,1.162169E-2],"split_indices":[2,0,0,0,0],"split_type":[0,0,0,0,0],"sum_hessian":[1.7013987E1,4.599807E0,1.2414181E1,3.3836067E0,9.030574E0],"tree_param":{"num_deleted":"0","num_feature":"5","num_nodes":"5","size_leaf_vector":"0"}},{"base_weights":[-7.860173E-2,-7.47076E-1,7.4981886E-1,-1.17591E0,-4.0213424E-1,2.8474542E-1,1.0915663E0,3.008733E-1,-7.673888E-1,4.5245254E-1,-1.9610511E-1,-9.6839815E-1,-3.062756E-1],"categories":[],"categories_nodes":[],"categories_segments":[],"categories_sizes":[],"default_left":[true,true,true,false,true,true,false,false,true,false,false,false,false],"id":84,"left_children":[1,3,5,-1,7,9,-1,-1,11,-1,-1,-1,-1],"loss_changes":[1.1607995E1,1.2344093E0,1.1844983E0,0E0,2.2635922E0,5.1919395E-1,0E0,0E0,2.1237254E-1,0E0,0E0,0E0,0E0],"parents":[2147483647,0,0,1,1,2,2,4,4,5,5,8,8],"right_children":[2,4,6,-1,8,10,-1,-1,12,-1,-1,-1,-1],"split_conditions":[3.8175952E-1,-7.615852E-1,2.1022534E0,-1.17591E-2,-1.12563744E-1,9.939332E-1,1.0915663E-2,3.008733E-3,-3.663294E-3,4.5245253E-3,-1.961051E-3,-9.683982E-3,-3.062756E-3],"split_indices":[3,3,3,0,3,3,0,0,3,0,0,0,0],"split_type":[0,0,0,0,0,0,0,0,0,0,0,0,0],"sum_hessian":[1.8949919E1,1.0541721E1,8.408197E0,3.6254835E0,6.916238E0,4.3379803E0,4.0702176E0,2.425031E0,4.491207E0,3.2600307E0,1.0779492E0,2.3616018E0,2.129605E0],"tree_param":{"num_deleted":"0","num_feature":"5","num_nodes":"13","size_leaf_vector":"0"}},{"base_weights":[-2.2172716E-2,-4.4150555E-1,6.3510746E-1,-6.610727E-1,7.776056E-1,-3.9868516E-1,1.0040807E0],"categories":[],"categories_nodes":[],"categories_segments":[],"categories_sizes":[],"default_left":[true,true,true,false,false,false,false],"id":85,"left_children":[1,3,5,-1,-1,-1,-1],"loss_changes":[5.2623568E0,3.625832E0,3.2421906E0,0E0,0E0,0E0,0E0],"parents":[2147483647,0,0,1,1,2,2],"right_children":[2,4,6,-1,-1,-1,-1],"split_conditions":[-3.5332128E-1,1.337484E0,5.391109E-1,-6.6107265E-3,7.776056E-3,-3.9868513E-3,1.0040807E-2],"split_indices":[4,3,3,0,0,0,0],"split_type":[0,0,0,0,0,0,0],"sum_hessian":[1.7075497E1,1.0625136E1,6.4503603E0,9.391439E0,1.2336962E0,1.6754744E0,4.7748857E0],"tree_param":{"num_deleted":"0","num_feature":"5","num_nodes":"7","size_leaf_vector":"0"}},{"base_weights":[-4.967148E-2,-4.4148082E-1,5.656982E-1,1.0630099E0,-9.948162E-3,-6.9119406E-1,8.3417827E-1,-8.242389E-1,-2.0891307E-1],"categories":[],"categories_nodes":[],"categories_segments":[],"categories_sizes":[],"default_left":[true,false,true,false,true,true,false,false,false],"id":86,"left_children":[1,-1,3,-1,5,7,-1,-1,-1],"loss_changes":[5.3215947E0,0E0,2.4787123E0,0E0,3.4442635E0,3.9967537E-2,0E0,0E0,0E0],"parents":[2147483647,0,0,2,2,4,4,5,5],"right_children":[2,-1,4,-1,6,8,-1,-1,-1],"split_conditions":[-3.5332128E-1,-4.414808E-3,6.662841E-1,1.0630098E-2,2.5247064E-1,-6.658356E-2,8.341783E-3,-8.242389E-3,-2.0891307E-3],"split_indices":[4,0,4,0,2,2,0,0,0],"split_type":[0,0,0,0,0,0,0,0,0],"sum_hessian":[2.0035627E1,1.2414085E1,7.621542E0,3.6347644E0,3.9867775E0,2.3065035E0,1.680274E0,1.2520599E0,1.0544435E0],"tree_param":{"num_deleted":"0","num_feature":"5","num_nodes":"9","size_leaf_vector":"0"}},{"base_weights":[-7.960928E-2,-4.6746567E-1,7.7145344E-1,-6.900371E-1,1.7782456E-1,-2.7891722E-1,1.0924326E0,-1.0699128E0,-4.2471611E-1,-1.8000215E-1,-7.503045E-1,-6.4048564E-1,5.4784125E-1,-7.704203E-2,-8.760702E-1],"categories":[],"categories_nodes":[],"categories_segments":[],"categories_sizes":[],"default_left":[true,true,true,true,false,false,false,false,true,true,false,true,false,false,false],"id":87,"left_children":[1,3,5,7,-1,-1,-1,-1,9,11,-1,13,-1,-1,-1],"loss_changes":[6.8584466E0,2.1542664E0,2.5096078E0,6.262841E-1,0E0,0E0,0E0,0E0,5.0006676E-1,2.3170967E0,0E0,4.7065616E-1,0E0,0E0,0E0],"parents":[2147483647,0,0,1,1,2,2,3,3,8,8,9,9,11,11],"right_children":[2,4,6,8,-1,-1,-1,-1,10,12,-1,14,-1,-1,-1],"split_conditions":[6.476544E-1,5.391109E-1,1.276365E0,-7.615852E-1,1.7782456E-3,-2.789172E-3,1.0924326E-2,-1.0699128E-2,6.4851835E-2,-9.421994E-2,-7.5030453E-3,-3.2270557E-1,5.4784124E-3,-7.7042024E-4,-8.760702E-3],"split_indices":[2,3,3,3,0,0,0,0,2,2,0,3,0,0,0],"split_type":[0,0,0,0,0,0,0,0,0,0,0,0,0,0,0],"sum_hessian":[1.8684984E1,1.314508E1,5.5399046E0,9.722339E0,3.4227407E0,1.3273461E0,4.2125583E0,2.7510192E0,6.9713197E0,4.8664913E0,2.1048284E0,3.0542114E0,1.8122799E0,1.2917588E0,1.7624526E0],"tree_param":{"num_deleted":"0","num_feature":"5","num_nodes":"15","size_leaf_vector":"0"}},{"base_weights":[1.0295159E-1,-7.2827303E-1,4.5204467E-1,-1.0589656E0,2.614661E-1,-1.1411998E0,1.235203E0],"categories":[],"categories_nodes":[],"categories_segments":[],"categories_sizes":[],"default_left":[true,true,true,false,false,false,false],"id":88,"left_children":[1,3,5,-1,-1,-1,-1],"loss_changes":[5.368279E0,2.0832736E0,1.7439058E1,0E0,0E0,0E0,0E0],"parents":[2147483647,0,0,1,1,2,2],"right_children":[2,4,6,-1,-1,-1,-1],"split_conditions":[-7.685506E-2,7.940416E-1,9.3427753E-1,-1.05896555E-2,2.614661E-3,-1.1411998E-2,1.235203E-2],"split_indices":[2,0,0,0,0,0,0],"split_type":[0,0,0,0,0,0,0],"sum_hessian":[1.6365627E1,4.5190773E0,1.1846549E1,3.33488E0,1.1841971E0,3.7534385E0,8.093111E0],"tree_param":{"num_deleted":"0","num_feature":"5","num_nodes":"7","size_leaf_vector":"0"}},{"base_weights":[7.7513315E-2,-1.2351608E0,1.2105355E0],"categories":[],"categories_nodes":[],"categories_segments":[],"categories_sizes":[],"default_left":[true,false,false],"id":89,"left_children":[1,-1,-1],"loss_changes":[3.016624E1,0E0,0E0],"parents":[2147483647,0,0],"right_children":[2,-1,-1],"split_conditions":[1.0178852E0,-1.2351608E-2,1.2105355E-2],"split_indices":[0,0,0],"split_type":[0,0,0],"sum_hessian":[1.827738E1,8.425632E0,9.851747E0],"tree_param":{"num_deleted":"0","num_feature":"5","num_nodes":"3","size_leaf_vector":"0"}},{"base_weights":[4.3977898E-2,-1.1740394E0,7.363969E-1,9.184224E-1,-6.422081E-1,-9.8951244E-1,1.2990781E0],"categories":[],"categories_nodes":[],"categories_segments":[],"categories_sizes":[],"default_left":[true,false,true,true,false,false,false],"id":90,"left_children":[1,-1,3,5,-1,-1,-1],"loss_changes":[1.786995E1,0E0,3.9699783E0,1.022605E1,0E0,0E0,0E0],"parents":[2147483647,0,0,2,2,3,3],"right_children":[2,-1,4,6,-1,-1,-1],"split_conditions":[-4.460052E-2,-1.1740393E-2,1.1554566E-1,1.0060166E0,-6.422081E-3,-9.8951245E-3,1.2990781E-2],"split_indices":[1,0,1,0,0,0,0],"split_type":[0,0,0,0,0,0,0],"sum_hessian":[1.9163422E1,6.693496E0,1.2469926E1,1.1310355E1,1.1595712E0,1.615184E0,9.695171E0],"tree_param":{"num_deleted":"0","num_feature":"5","num_nodes":"7","size_leaf_vector":"0"}},{"base_weights":[-7.223256E-3,-7.3037463E-1,6.681241E-1,-1.1548337E0,1.4285547E-1,-9.361663E-1,1.1052085E0,-1.3247444E-1,4.7179636E-1],"categories":[],"categories_nodes":[],"categories_segments":[],"categories_sizes":[],"default_left":[true,true,true,false,true,false,false,false,false],"id":91,"left_children":[1,3,5,-1,7,-1,-1,-1,-1],"loss_changes":[1.0244434E1,3.9177842E0,8.644413E0,0E0,4.4303414E-1,0E0,0E0,0E0,0E0],"parents":[2147483647,0,0,1,1,2,2,4,4],"right_children":[2,4,6,-1,8,-1,-1,-1,-1],"split_conditions":[4.457227E-1,-3.1435803E-2,-9.296873E-4,-1.1548337E-2,-9.280768E-2,-9.361663E-3,1.1052085E-2,-1.3247443E-3,4.7179637E-3],"split_indices":[3,1,1,0,3,0,0,0,0],"split_type":[0,0,0,0,0,0,0,0,0],"sum_hessian":[1.8977243E1,9.124931E0,9.852313E0,5.923268E0,3.201663E0,1.8650229E0,7.9872904E0,2.0679874E0,1.1336757E0],"tree_param":{"num_deleted":"0","num_feature":"5","num_nodes":"9","size_leaf_vector":"0"}},{"base_weights":[-1.587223E-1,-7.054098E-1,5.0863475E-1,-9.790628E-1,-3.2288373E-1,-2.4488135E-1,7.483285E-1,6.5218054E-2,1.0504535E0,-1.6890125E-2,1.2661117E-1],"categories":[],"categories_nodes":[],"categories_segments":[],"categories_sizes":[],"default_left":[true,true,true,false,false,false,true,true,false,false,false],"id":92,"left_children":[1,3,5,-1,-1,-1,7,9,-1,-1,-1],"loss_changes":[7.4186087E0,8.41208E-1,1.8619957E0,0E0,0E0,0E0,1.437716E0,1.8794492E-2,0E0,0E0,0E0],"parents":[2147483647,0,0,1,1,2,2,6,6,7,7],"right_children":[2,4,6,-1,-1,-1,8,10,-1,-1,-1],"split_conditions":[3.8175952E-1,-9.421994E-2,1.4424704E-1,-9.790627E-3,-3.2288372E-3,-2.4488135E-3,-3.4435672E-1,1.4328128E0,1.0504535E-2,-1.6890126E-4,1.2661117E-3],"split_indices":[3,2,2,0,0,0,4,3,0,0,0],"split_type":[0,0,0,0,0,0,0,0,0,0,0],"sum_hessian":[1.835066E1,1.0055964E1,8.294695E0,4.9531183E0,5.102846E0,1.9965563E0,6.298139E0,2.3041887E0,3.9939504E0,1.295907E0,1.0082817E0],"tree_param":{"num_deleted":"0","num_feature":"5","num_nodes":"11","size_leaf_vector":"0"}},{"base_weights":[-2.0339344E-1,-1.2002527E0,6.6523695E-1,3.7083122E-1,8.5534006E-1],"categories":[],"categories_nodes":[],"categories_segments":[],"categories_sizes":[],"default_left":[true,false,true,false,false],"id":93,"left_children":[1,-1,3,-1,-1],"loss_changes":[1.7508926E1,0E0,2.9598236E-1,0E0,0E0],"parents":[2147483647,0,0,2,2],"right_children":[2,-1,4,-1,-1],"split_conditions":[-3.5013232E-2,-1.2002526E-2,-3.4435672E-1,3.708312E-3,8.553401E-3],"split_indices":[1,0,4,0,0],"split_type":[0,0,0,0,0],"sum_hessian":[1.829834E1,8.342513E0,9.955826E0,5.064031E0,4.8917947E0],"tree_param":{"num_deleted":"0","num_feature":"5","num_nodes":"5","size_leaf_vector":"0"}},{"base_weights":[7.752505E-2,-8.6285317E-1,6.45182E-1,-1.0384504E0,-4.282198E-1,2.7288726E-1,9.1335166E-1,4.2939007E-2,-6.222041E-1,5.3199285E-1,-4.0185627E-1,7.1328914E-1,2.4353144E-1,-4.970842E-1,8.109717E-1],"categories":[],"categories_nodes":[],"categories_segments":[],"categories_sizes":[],"default_left":[true,true,true,false,true,true,false,false,false,true,false,false,true,false,false],"id":94,"left_children":[1,3,5,-1,7,9,-1,-1,-1,11,-1,-1,13,-1,-1],"loss_changes":[1.0637384E1,1.304884E-1,9.8356295E-1,0E0,3.8045663E-1,1.3670211E0,0E0,0E0,0E0,9.804988E-2,0E0,0E0,1.8840632E0,0E0,0E0],"parents":[2147483647,0,0,1,1,2,2,4,4,5,5,9,9,12,12],"right_children":[2,4,6,-1,8,10,-1,-1,-1,12,-1,-1,14,-1,-1],"split_conditions":[-6.658356E-2,-3.169238E-1,5.1183784E-1,-1.0384504E-2,-2.0011319E-1,3.7490004E-1,9.133517E-3,4.2939006E-4,-6.2220413E-3,2.3235218E-3,-4.018563E-3,7.132891E-3,1.1003313E0,-4.970842E-3,8.109717E-3],"split_indices":[2,2,2,0,2,2,0,0,0,2,0,0,0,0,0],"split_type":[0,0,0,0,0,0,0,0,0,0,0,0,0,0,0],"sum_hessian":[1.7884333E1,6.5362997E0,1.1348033E1,3.665953E0,2.8703465E0,5.5963373E0,5.751695E0,1.0642035E0,1.8061432E0,4.1964417E0,1.399896E0,1.6725297E0,2.5239117E0,1.1486704E0,1.3752413E0],"tree_param":{"num_deleted":"0","num_feature":"5","num_nodes":"15","size_leaf_vector":"0"}},{"base_weights":[7.92702E-2,-1.2205048E0,1.167477E0],"categories":[],"categories_nodes":[],"categories_segments":[],"categories_sizes":[],"default_left":[true,false,false],"id":95,"left_children":[1,-1,-1],"loss_changes":[2.7541458E1,0E0,0E0],"parents":[2147483647,0,0],"right_children":[2,-1,-1],"split_conditions":[1.0178852E0,-1.22050475E-2,1.167477E-2],"split_indices":[0,0,0],"split_type":[0,0,0],"sum_hessian":[1.7464441E1,7.90317E0,9.561272E0],"tree_param":{"num_deleted":"0","num_feature":"5","num_nodes":"3","size_leaf_vector":"0"}},{"base_weights":[2.0397595E-1,-1.2177738E0,1.2872164E0],"categories":[],"categories_nodes":[],"categories_segments":[],"categories_sizes":[],"default_left":[true,false,false],"id":96,"left_children":[1,-1,-1],"loss_changes":[3.262678E1,0E0,0E0],"parents":[2147483647,0,0],"right_children":[2,-1,-1],"split_conditions":[9.543112E-1,-1.2177737E-2,1.2872164E-2],"split_indices":[0,0,0],"split_type":[0,0,0],"sum_hessian":[1.9167074E1,8.23477E0,1.0932305E1],"tree_param":{"num_deleted":"0","num_feature":"5","num_nodes":"3","size_leaf_vector":"0"}},{"base_weights":[2.3739513E-2,-3.8133115E-1,6.891917E-1,1.0157223E0,1.7402585E-1,-5.7451683E-1,7.9565245E-1],"categories":[],"categories_nodes":[],"categories_segments":[],"categories_sizes":[],"default_left":[true,false,true,false,true,false,false],"id":97,"left_children":[1,-1,3,-1,5,-1,-1],"loss_changes":[5.0813055E0,0E0,1.0209682E0,0E0,2.3039305E0,0E0,0E0],"parents":[2147483647,0,0,2,2,4,4],"right_children":[2,-1,4,-1,6,-1,-1],"split_conditions":[-3.5332128E-1,-3.8133115E-3,6.569112E-1,1.0157223E-2,7.7772975E-2,-5.7451683E-3,7.956524E-3],"split_indices":[4,0,4,0,2,0,0],"split_type":[0,0,0,0,0,0,0],"sum_hessian":[1.687573E1,1.0755597E1,6.1201324E0,3.1511683E0,2.9689643E0,1.3813599E0,1.5876043E0],"tree_param":{"num_deleted":"0","num_feature":"5","num_nodes":"7","size_leaf_vector":"0"}},{"base_weights":[-2.0822074E-2,-1.0297348E0,2.7201816E-1,-4.957305E-2,7.6640546E-1,-3.8078526E-1,4.6361437E-1,7.221504E-1,1.5815683E-2],"categories":[],"categories_nodes":[],"categories_segments":[],"categories_sizes":[],"default_left":[true,false,true,true,false,false,true,false,false],"id":98,"left_children":[1,-1,3,5,-1,-1,7,-1,-1],"loss_changes":[6.0659504E0,0E0,2.5768802E0,1.9807191E0,0E0,0E0,5.2280086E-1,0E0,0E0],"parents":[2147483647,0,0,2,2,3,3,6,6],"right_children":[2,-1,4,6,-1,-1,8,-1,-1],"split_conditions":[-3.169238E-1,-1.0297349E-2,4.8040444E-1,-3.5332128E-1,7.6640546E-3,-3.8078525E-3,1.4034885E0,7.2215036E-3,1.5815682E-4],"split_indices":[2,0,2,4,0,0,4,0,0],"split_type":[0,0,0,0,0,0,0,0,0],"sum_hessian":[1.8583141E1,3.6143546E0,1.4968787E1,9.61446E0,5.3543277E0,6.0000286E0,3.614431E0,1.9030437E0,1.7113873E0],"tree_param":{"num_deleted":"0","num_feature":"5","num_nodes":"9","size_leaf_vector":"0"}},{"base_weights":[1.127332E-2,-7.362118E-1,5.5265254E-1,-1.0818399E0,-2.3108116E-1,-7.8262705E-1,7.89243E-1,-8.5306185E-1,4.3979013E-1,-5.511222E-1,1.1775198E0],"categories":[],"categories_nodes":[],"categories_segments":[],"categories_sizes":[],"default_left":[true,true,true,false,true,false,true,false,false,false,false],"id":99,"left_children":[1,3,5,-1,7,-1,9,-1,-1,-1,-1],"loss_changes":[7.843229E0,1.1724758E0,4.164965E0,0E0,2.2869499E0,0E0,5.8722467E0,0E0,0E0,0E0,0E0],"parents":[2147483647,0,0,1,1,2,2,4,4,6,6],"right_children":[2,4,6,-1,8,-1,10,-1,-1,-1,-1],"split_conditions":[-9.280768E-2,-9.421994E-2,-1.0766959E-1,-1.0818399E-2,-3.1435803E-2,-7.826271E-3,-1.2822178E-3,-8.530619E-3,4.3979012E-3,-5.511222E-3,1.1775197E-2],"split_indices":[3,2,2,0,1,0,1,0,0,0,0],"split_type":[0,0,0,0,0,0,0,0,0,0,0],"sum_hessian":[1.7376225E1,7.1476054E0,1.0228618E1,3.565952E0,3.5816534E0,1.192183E0,9.036435E0,1.7176273E0,1.8640261E0,1.9355037E0,7.100931E0],"tree_param":{"num_deleted":"0","num_feature":"5","num_nodes":"11","size_leaf_vector":"0"}}]},"name":"gbtree"},"learner_model_param":{"base_score":"5E-1","num_class":"0","num_feature":"5"},"objective":{"name":"binary:logistic","reg_loss_param":{"scale_pos_weight":"1"}}},"version":[1,5,2]}